solver_type L2R_L1LOSS_SVR_DUAL
nr_class 2
nr_feature 25714
bias -1
w
0 
0.1528391853072715 
1.922178796733907 
14.57287440693301 
18.62327655148518 
12.46904392598319 
9.184406481522871 
13.09194805119137 
8.966943773650913 
9.219641670720044 
22.9094181101279 
16.56987897696898 
4.116394466014453 
6.548974379916067 
7.45019466506708 
6.7580526417522 
3.48515306778297 
4.056904928905048 
2.64374764537715 
9.387422571768914 
4.776377878690001 
2.012194247225653 
3.475675168377853 
3.479636606761729 
1.391433296574218 
4.890875767930376 
8.117209368563797 
2.419610747591282 
9.91628705434332 
1.505908472023233 
0.3737415322036771 
0.26728670655001 
7.13967879583342 
2.944560218546255 
3.009033822656029 
1.766585127118225 
5.964773530170707 
1.446063125782514 
1.072777613737059 
1.890457821127024 
1.553583127708273 
1.112067165506128 
0.6741990506811067 
3.463946971188413 
2.787609136406166 
3.285292355695004 
1.217658506483144 
0.8121874948599404 
0.3916900645163459 
3.092691776516862 
-0.4029654523871271 
2.006506104085472 
1.943512995521258 
1.100071844247651 
1.34957013013831 
1.116205527259396 
3.477612828696988 
3.970748618108963 
5.082088255734836 
3.693152802258408 
2.613295974850782 
-0.864088390823208 
2.870367768829263 
4.155877966597552 
-5.445393283901503 
-1.845290495152859 
3.209564918624139 
-0.2537705502597817 
0.6117122090408688 
2.714495939466997 
0.5420348943049387 
2.295099524162907 
5.854710938192278 
3.448372328666446 
3.00210897490828 
4.145652693774813 
0.6195950324540291 
0.8647290638000162 
4.290165143307706 
2.137347441713403 
0.4543095390329747 
3.549250002063968 
1.917488772215461 
8.653472246678758 
1.680730390936462 
1.313542291400854 
1.578024257771341 
5.503542897750219 
-0.9935135597302351 
3.519193823321557 
4.73193154081708 
5.344661585145356 
2.297788919027006 
2.372990135993543 
2.165604005547732 
3.966704906857265 
3.796951966663845 
5.388691647121207 
2.13635190911162 
3.694439856715148 
1.353334062827249 
1.442886907306776 
7.602123753648444 
-2.064793923632582 
2.155290909360589 
1.78972382862277 
6.094435130678077 
1.245226160301362 
3.388777772452149 
1.100915072537316 
1.983898127172106 
1.548703111071893 
-4.183961652386654 
4.715172925383578 
2.388878814540409 
0.8859199331595757 
1.406594451107278 
1.685517824245846 
1.488936625051227 
2.738848057343917 
5.155788708270149 
1.11360050519931 
5.169511116368299 
3.291956544822459 
3.330996380929732 
5.953339988038868 
-0.4223376098144781 
0.4489751801454859 
3.824299056671134 
0.8406831026193529 
0.9552817632939048 
2.332585226051098 
4.367758539570036 
2.200001483704531 
0.9617885952771041 
-0.5034278186152881 
3.873655925059139 
2.798432461109967 
3.645346370880832 
0.874509710009624 
1.903894892972027 
3.501316002587281 
0.486192871637166 
0.1079166227950893 
3.648590964479579 
2.110158990198215 
0.6917283625103291 
1.013848754043486 
1.671029372423056 
3.723492870708188 
2.391868870228816 
-0.8664602815097664 
3.018072697310356 
1.959421457648163 
4.490509557926003 
5.704725851873884 
6.084816375453928 
-0.3141373371936582 
2.542428563007789 
1.321958633800995 
2.783642603363625 
4.29169717600814 
4.983302587850219 
14.3103175389214 
0.05541543459460208 
0.2660309212820827 
2.191239460558341 
0.6612680688064386 
6.868530313055383 
5.494227731837793 
3.637595662116716 
2.900575087254195 
9.646933124826528 
3.764697397361541 
2.494255940538266 
3.084257960410981 
1.636300964188597 
1.642302715848795 
0.5289586882017037 
0.5502767107402682 
4.900539390687368 
1.635552309243541 
4.226911629089312 
0.8171103914968062 
0.3776657226369473 
1.181149572213496 
5.564077197554412 
-1.359176437917998 
1.202103986108272 
1.706560672586501 
9.447061669600584 
1.195477805044509 
1.170628783466056 
2.248079878805092 
2.944664998779785 
1.773146085289714 
5.748651232247589 
1.458551056235099 
1.920534609175546 
2.878397788437034 
2.34379332771429 
0.2362217064943233 
3.088587126827974 
3.29809992724104 
1.679430607487234 
-0.1718679074228325 
1.975423986631774 
5.786733533516139 
1.308817488903293 
1.685627895632764 
0.09649365307402788 
6.598966696638015 
3.783324587771069 
1.665069911388262 
4.506274926541074 
-0.9245573858430901 
0.08552952091158572 
2.319007254115209 
5.106558152708657 
0.6923703146732281 
1.636179111671867 
0.310779489118728 
1.421594064521149 
2.033881834734309 
3.556728704046907 
1.425027406384217 
0.9610989631074822 
3.88586301313617 
2.337509114698793 
4.804848365429721 
3.954663760836927 
2.105208138790334 
2.339572956945674 
0.8525750223259091 
4.405034533175678 
1.481193215254589 
4.100859364250488 
1.421711519711861 
2.215961072898959 
1.960110753689894 
-0.5202710845981079 
0.01339409696064658 
2.697862271842128 
3.34510034950639 
3.667513944193047 
6.502170156333134 
3.80221349275433 
0.03765179569572949 
0.02493329919545503 
3.629184772799877 
-1.445125784987593 
2.845148604848803 
1.902522298651953 
1.912323469628701 
0.3587170648048822 
1.1502096413949 
1.674568758945551 
3.006262504744969 
0.3124776822283353 
4.855237506455864 
1.175919138436072 
4.198898406306878 
0.9490725779438235 
-0.09153082845367987 
2.315320650927416 
2.475369015902546 
0.919618901340193 
1.557675904846936 
1.452939723870602 
0.7672169069874006 
2.709417593929192 
-0.07786310097150023 
1.493809489530247 
-1.876405402708035 
2.30802979228946 
2.954573655070498 
1.057290073400951 
2.862203786303664 
-0.0962549178646408 
1.876094741161768 
6.410393225413613 
-0.7143224985188706 
3.520472994419127 
0.3364414724312872 
-0.4695626213459568 
1.209366147727188 
3.350019956243774 
-0.0778317208144034 
1.018249234022571 
0.9847745935104387 
1.688044627293348 
2.215973901591215 
1.762595378693109 
1.393917217678282 
1.542556633536284 
1.827067340482218 
1.217788015087131 
-1.465382416433324 
1.90410376498314 
3.174368864665584 
3.243929724420393 
1.268792364858061 
0.7416544949257118 
0.8702057080855932 
5.193497139712515 
2.197396325075174 
2.143101499213303 
0.2758906137892803 
5.869060788824254 
2.722055289412479 
-2.688510844888867 
-2.106530284032588 
1.494786018867932 
0.1218751290620564 
-0.1415537885704061 
1.405669652725227 
0.09223303081214317 
1.238513966092019 
2.486175630989553 
2.846207693928832 
0.4788183484571569 
0.8613432646971857 
2.058105407218251 
2.641292011504258 
0.5519716785982912 
1.083508969798945 
1.431893838242961 
4.104808167168932 
4.324128181694737 
0.3776204948966952 
3.073952739814918 
0.633354596283265 
1.457164747235161 
1.358982199428413 
-1.047973436103133 
0.9158652270709299 
2.419720752742539 
0.8274926614987989 
0.7588409204077726 
4.024244967762796 
3.850739066402061 
-5.083973016154526 
10.26827039564203 
3.877184517521431 
-0.2728108486336284 
1.962343411984603 
-0.3367230229814535 
1.397278512875852 
1.422816710885923 
2.74759011617991 
1.217718514135611 
3.945257303148726 
2.727331298990677 
0.8422837543553524 
1.198180392782651 
0.4339839139517216 
1.441339882427156 
1.918482638483435 
0.9407160790681256 
0.8148461335694988 
0.2870180795914723 
-0.5460442898406418 
1.139973631703357 
-0.2931325369121552 
4.372134000857067 
-0.784913475362951 
0.8610693804812212 
6.48596190309386 
1.14382715381521 
1.496501352788907 
-0.3191632362467014 
0.2535115094216954 
3.000570886115909 
-0.5575413713716896 
3.150894455966566 
2.257376824977639 
2.749195787550973 
3.991632221531362 
3.930037425552903 
2.509950295246282 
0.7794230088923181 
-0.7328301092190052 
2.194419203065729 
3.169324694319482 
-0.1386896464043595 
-0.5116825508645434 
1.058841094615525 
0.6397769853233892 
1.367097842981862 
3.572759300480512 
1.401402885029014 
1.369909454819807 
0.6772790236845507 
1.45384576238231 
2.867315518810136 
0.6538418939259459 
2.48746802112289 
-0.7754412908574216 
3.764932664998536 
1.51063801569417 
1.167634173377077 
3.266548174288771 
-0.2870047282704751 
-0.9421084437095392 
1.599232306998132 
1.133358521478216 
1.025383566512505 
4.950556014958961 
0.8990935981368902 
5.074484722931538 
1.102498379255564 
0.8019435068758181 
1.274656870527779 
1.69279557716396 
1.858169093822438 
4.829861060064329 
1.415472577159806 
6.196916864921649 
2.271273788539181 
2.815564925228281 
3.000145936277485 
3.641912055538361 
2.014283400074973 
2.571950970973635 
0.1662194006970417 
3.328071831799583 
2.066228316684096 
2.315960824263345 
0.4726277321545838 
1.754835728021469 
2.956143955151213 
1.480356531267347 
2.061674066558466 
-3.864914419529226 
0.7350478781165191 
1.887419501188045 
-2.493852923042509 
1.060497061968957 
1.764071311689955 
0.6542554943145296 
0.9611858169929597 
-1.534249336084273 
2.868938003693789 
1.895265920253189 
0.4705171333337839 
4.292892625383636 
0.7461845502645448 
-0.2094013440930827 
-2.001222718504002 
1.104286177370514 
-1.5025009466683 
-0.3238241406217687 
0.6885025780164727 
1.551229657350941 
3.468486083163802 
0.9137921093847907 
-0.9691768328941343 
1.71105968574149 
0.2501469937641965 
0.3510882729596561 
4.911090096058357 
0.559107507084478 
0.4719957737062342 
3.972904651898399 
1.018623518870584 
2.202262883142404 
2.613151960468937 
2.185544141488293 
-1.893652960729745 
5.590006933502821 
5.947454744099887 
3.879382795145977 
1.017259433936785 
2.282862084555732 
4.897395845590919 
0.293236671671761 
1.358659768089462 
1.571607479307663 
-0.3122172777758621 
1.952556343518081 
0.7295923373708498 
3.418266921450914 
0.9881523946431254 
-1.34753763315947 
1.133176305619214 
2.16218262726511 
1.186147410455664 
0.3164950325017233 
3.978134786389631 
0.2603803595725273 
3.383404388075557 
-2.532000945285639 
-0.5460950311619956 
3.918743745228225 
1.498243324392872 
0.8894195169147386 
3.594204783523876 
-0.226602389532186 
2.242294618324433 
-0.6353285388190889 
2.153217982408993 
-0.4785731459094259 
0.6429854792695703 
2.696226310949181 
0.6799311851118645 
1.828456460665547 
2.220404733984777 
1.472512738217715 
0.6737888462363513 
5.83738799216623 
1.782452129637012 
4.779145005465346 
1.730641353275246 
0.8372302983870831 
1.252980172974168 
3.145871749014467 
1.046433108404412 
4.06277463950451 
2.804902690608864 
2.075309627232553 
0.249349198653805 
5.508873687163532 
2.663712691475757 
0.6297693959975283 
1.888974502608237 
2.500793311665897 
3.561374605941459 
-0.5683433919112522 
-2.422317635570662 
4.932032803741405 
3.244104852504734 
1.440870367012042 
1.80548485375424 
2.257900336217514 
2.081130910163711 
0.3204335723120368 
2.003505379425264 
4.188957895184768 
3.731316838932063 
0.5876871901899884 
0.9304214876308184 
1.003312115908802 
5.022680365070974 
2.459481842452441 
0.9236399380647956 
3.177419228039823 
4.815343072441343 
0.7989616219329896 
1.272124551227445 
0.2462405097569818 
1.235241591210086 
2.136267586681136 
5.089728614577579 
-0.133080611582463 
2.020752981512494 
-1.41101534804939 
2.235292155453107 
1.076284303073717 
1.200745750678602 
-1.057033927693628 
3.030118292420441 
-0.4453354600373324 
0.799125164401793 
2.046659803370549 
-0.2806737133511337 
-1.718236974085233 
8.547074800963172 
2.311568001746695 
1.546765308631389 
0.7063920484537405 
2.106495996518424 
3.952316378187926 
-0.4193464529471784 
0.5963311119330951 
1.93779951027683 
1.311233309858938 
1.577503775821652 
0.5294977565272051 
0.01725110156089472 
-0.6501203690774839 
0.03419723894727469 
3.221978919362135 
0.8753543017892742 
0.556521875088662 
3.228692095211669 
2.310709081950761 
-1.845906291458183 
1.359492554949243 
-2.712184820451481 
0.8347992522710697 
0.1395498678721952 
-1.811150730524611 
0.3260082073260268 
3.680951102696263 
-0.6441711146481727 
1.746422009761836 
2.274318858570739 
1.137076952120144 
-0.4032065841269049 
1.132203531941111 
2.381999920171299 
0.991089545294878 
2.046599305982891 
-0.02689685170810959 
3.89614728120495 
0.2237170991670275 
0.9049558469367825 
-0.454554239594504 
0.9536999332904647 
0.321109305255473 
0.3072577184838967 
-1.64190899899715 
-0.8499843598726181 
8.028865893702108 
2.503548811961054 
0.535332548055491 
-0.5359863878968313 
2.24914069633165 
0.3956108950302094 
0.4057221650835477 
2.855768176479802 
-0.2020242162679838 
2.875416570616651 
-1.311796181360471 
1.70110218447712 
0.7153714117962268 
1.163119753130721 
0.4333070389687427 
0.3957550914103559 
3.030318296036908 
-0.07220914896724265 
1.50100636772112 
-3.20023855692873 
-0.8886325287779263 
-0.6744027923286315 
1.62540356616994 
2.801951826677413 
2.0365447424789 
-0.186748719674533 
0.4665479200831803 
2.188335380185064 
-0.03701182655702775 
1.071376177312781 
0.4595690583347298 
0.09881401680868501 
3.773448459439576 
1.170459055583195 
1.04840536840975 
3.644849121919791 
-0.5839219968967995 
3.097431621089401 
1.824745351521551 
0.4384823359523136 
0.352766762773882 
-0.3026701066676265 
-0.2739262861746428 
0.2627040837840837 
5.64583736300917 
0.7975891573935985 
2.734417723043555 
0.7993811254000036 
1.607018688072936 
0.6434819751648333 
1.22382952738546 
0.9347254450317626 
0.1544126473686255 
3.586470833362425 
2.142174004371135 
3.088557022647954 
6.203588732769848 
4.749894670034752 
0.9642959529552666 
2.822627791962449 
0.669856379167325 
-1.397314568312938 
0.05626998769516262 
1.108197943044075 
0.2792733756062279 
3.18186253602092 
2.422380150269966 
0.1100205194394521 
-0.2021621948378788 
3.743565429470162 
0.9896993157850711 
0.3608780248358365 
-0.003929322603305412 
2.742237090241878 
3.419088777302764 
2.1058530611749 
1.29967192794491 
9.163493808182993 
1.428712732920849 
0.2961313211469544 
0.9898193030003146 
0.5902812207272343 
1.802532801336983 
-1.29583399347185 
7.14247504787866 
1.609754137435288 
3.590144696959064 
2.811260548582219 
0.06514897266888925 
2.528642124036241 
1.709536895247063 
-0.3480242081210909 
0.2334949843320002 
0.5025674458289201 
0.4602617468699882 
0.1966087897798394 
2.034206708701411 
3.753429007891764 
-1.772004971498259 
1.068052009485621 
2.23789330794667 
-0.31277827989943 
2.398813425586082 
0.8816732491541803 
0.2309993310663901 
3.865618064782868 
1.380181999953423 
1.714392648074866 
0.05992257437731684 
2.568097057043485 
0.08636727216468212 
2.505355271329584 
2.274822766376846 
1.378767838969851 
3.091832443885747 
0.147976511036308 
1.712352209254176 
1.871893527151002 
1.674358571986278 
2.278632642574143 
5.143812152955404 
5.653152907872063 
3.632208618060903 
3.836880843489866 
0.6389925167589107 
2.12182848006844 
-1.841304541689753 
2.660376472052365 
0.8185928524412683 
0.4618656378637601 
2.542456037565402 
4.442818903241792 
2.664239374346771 
-0.1170892765482696 
1.68955885333592 
-0.6693264929870912 
0.5349018158868172 
0.9021501316346735 
0.8765984406621576 
0.9194980211323741 
3.001531748753508 
7.746101751262532 
2.816152941035929 
1.096035629438064 
1.286380655717415 
0.3984667921916125 
0.0773284236214945 
-3.038296596352405 
0.8980248073252294 
-0.03081548904223899 
1.709687166857598 
1.985001024444729 
2.431127276101803 
0.7662789646116872 
2.552584316694432 
-2.603202173569252 
0.136281568380679 
-0.163222157791776 
0.4392078213563587 
1.575931193350839 
3.053762632419575 
2.319309895446887 
3.754973065041177 
1.132392077814014 
0.6881626304241131 
-0.9409337819857777 
-0.1655835615583116 
1.887254908262597 
1.127152561808957 
1.959207149259896 
0.3679737688558702 
1.413533801231045 
1.894213922208111 
-0.3904693580237514 
3.600977340341053 
2.100161572279655 
4.361206033378642 
0.7469903918272406 
0.8948400254209814 
0.4917092841791847 
2.982957568431358 
0.3633766574477781 
-1.851077291827954 
0.6780802151979441 
-0.05796778945045915 
1.682852356088081 
1.898378049217738 
-0.1578444047621456 
0.5613553356668639 
-2.205316389298459 
-0.621667118873146 
2.408937835205521 
1.197248994139786 
0.619641118067205 
-1.287703612900459 
2.974444313654893 
1.074643336105398 
0.04066110062932232 
1.148352531325881 
-0.5001034896296522 
2.566034429684053 
-2.902780835536284 
-0.8339292210169386 
-2.810585483587256 
0.3334809036739603 
-0.6141561212009728 
2.108366072822874 
2.7023660508957 
2.000022548860345 
3.446615750336769 
-0.4680502517125854 
-1.313679841022509 
0.394337256612347 
0.5346780624339725 
-0.4194936634484045 
-0.9338951210788617 
3.08333943091826 
3.608477047906575 
-1.034572956174637 
3.736811696436188 
1.395916024807724 
0.2373542892912633 
2.201767316957569 
1.456389728679713 
0.8968505915393786 
2.582562047997898 
2.502724710360237 
1.811504586420103 
-1.657213675421769 
3.444786067042185 
0.6514414513907132 
-0.08139459719737317 
0.1171323981587593 
2.05209293442126 
-0.5123904568800821 
0.7061593436997199 
-8.658648942222559 
1.949312132151442 
-0.376329620641814 
0.3430265883689509 
0.6925735395774362 
1.925099824764699 
1.452390094126376 
2.978354300881063 
-0.1126902239318666 
1.430193496800663 
1.214045421954434 
-0.8146968229914552 
5.996228959371463 
-0.01252523354023976 
1.239596167606061 
0.7756850819362966 
2.228686031438173 
1.752710269115363 
0.7837759992005704 
-1.276312982461725 
-0.7607492050413516 
4.932498623234591 
0.1258684384097718 
-3.230836947074173 
-2.045385858041901 
0.1171593235423898 
1.042191818436053 
0.08954359486721553 
-1.634150464170031 
1.730447621832264 
1.130491648543403 
2.603350873212136 
2.02525168657834 
-1.139297394230209 
1.49990838665058 
0.9732496553589201 
1.073974070058669 
1.662160795099976 
1.418118907304028 
1.51249170899809 
2.958474588826239 
-0.746248933532043 
2.189441759719616 
1.539591786928697 
1.065349269667982 
-0.2375842816738484 
1.234078145996691 
2.689332451528685 
0.9053926731195641 
0.06509253117907571 
1.061895852644401 
-0.8928227663886777 
4.78788908880642 
1.689496338396249 
1.170923643799052 
3.596900602041305 
-0.231088386029735 
0.3033454262434631 
-1.983378352839793 
-0.1305596203601696 
1.089647268702235 
0.5766460194592039 
2.971225684750598 
5.045229474935625 
1.256519950325692 
0.7150846344695958 
1.603231874807809 
1.070453313267773 
0.8771186595550085 
1.664483448082874 
-0.3238914277864229 
0.1534881151649324 
0.6262376947299054 
0.3974368655329256 
4.125003727494857 
1.178761131279383 
-2.074981379612002 
0.9941344705385482 
3.303174517802684 
0.5694230920068865 
-2.004630162016038 
1.201966500157301 
2.061330148189883 
0.8756563539374541 
0.608774422477758 
0.507434152529221 
-0.826191412894922 
0.8155781485016222 
-0.03241711106899861 
1.935701739616722 
1.891249206289263 
-0.1374000124900456 
0.9730540247296484 
0.1649590901573743 
2.122090482727248 
6.661776215106761 
1.338174436739537 
-0.7223401689759071 
5.013594928545406 
8.93612637988727 
0.4122930230024691 
1.179643582819554 
0.6378570802874898 
0.9542550876486678 
0.2108756590674404 
0.6631480110116996 
0.5330989522537027 
0.6611179184401729 
3.357997062946819 
0.2460006458810285 
1.514844580752746 
-1.219243900265892 
1.219956004133998 
2.050947625188823 
0.7359012886526282 
1.113337856220052 
2.621923603945111 
0.6093275771578551 
0.5716007764344633 
3.196270803083592 
2.01161459683662 
-0.5809960317538881 
0.3417986351433141 
5.188694642921425 
1.463199163223429 
-1.07170458001931 
0.8766992234472339 
3.284721226393384 
1.639650763106806 
0.3652703788371487 
3.843951766987227 
0.8259555279397618 
0.7625130778301966 
1.708336001715925 
0.1541715802446541 
-0.4447574164530882 
4.187142784932787 
1.766437114972694 
0.2314544956838795 
2.396934554382431 
3.329042795657549 
-1.581271467783205 
1.986838851415241 
1.062496693777131 
0.6678497962523668 
2.722044597046749 
-1.448111738115204 
2.539187536812045 
0.2856059053067405 
0.013912678827012 
0.6395443365150174 
1.786139674526265 
-0.2882052080329597 
0.6200140190001957 
1.564116890657419 
-0.4437447527126477 
1.67037200237333 
-1.836071814072041 
1.090537664515439 
1.980385498585646 
2.436884793461179 
0.7406325900486627 
1.273317892785486 
3.311626918336312 
0.07914901887997813 
3.064671615436802 
0.4585436609322304 
0.1337787542855944 
1.024968555542251 
-1.444436598198364 
1.962815980077613 
0.01736895752711415 
2.844082643537089 
-1.645141286210396 
1.401499444419946 
0.3170544610770871 
2.050865889627893 
-0.1382778866663545 
0.7924528618204149 
-0.03142436348960815 
-1.254596009962133 
3.298452571704054 
0.7801448843564086 
3.295303679947696 
1.979395665306153 
3.792937447696175 
1.521037459259878 
2.855677096522736 
2.046449855963672 
0.9497049024349176 
1.084597593492728 
2.705000991093624 
0.9018700048009267 
5.84849001612035 
0.1596672477911587 
-0.08362500058632107 
0.6927848801212003 
0.8304859305568733 
1.002924390444389 
1.828956810820199 
1.174326047505293 
0.1796822832279683 
0.5133441836065397 
0.9025338099019102 
-2.565670354112659 
0.2090291420572493 
0.9540911534225093 
-0.4439773203836094 
2.445118416391002 
-0.5895670180746201 
1.770020941552798 
3.066283028295661 
1.814883657367373 
-0.2329721291154076 
0.8674143579025062 
1.407670563875844 
1.189667675749901 
1.438633833401282 
-1.039615175371896 
1.36294469271974 
-0.4056779529969586 
0.5554332709311706 
1.65707065421233 
1.204805119892006 
1.301073083040112 
1.159338524481069 
-0.8772563807031944 
1.550063042460085 
3.248319875603401 
5.670660161019472 
2.515613485036465 
-0.1527079111957942 
1.680673927686509 
3.25798539639118 
2.23550732722464 
2.243489229219888 
1.109932907373485 
-0.05573744006943727 
1.52158318741541 
3.398883827018565 
-0.5758965517814323 
0.922549388633785 
0.4295680578188154 
2.867399405194668 
1.004749258938337 
1.813800506529721 
-0.08554921630005992 
2.071529574402716 
2.194350901843941 
-0.02924817290740539 
0.4034678023244673 
-0.6257985356680481 
2.419900159405704 
-0.03975495139185742 
0.2383947909766476 
0.9406139081856151 
2.536370509248694 
0.3531052219802738 
0.9964769027295729 
0.1582674988999597 
0.2428571646797729 
1.677759014655748 
2.119540146433145 
3.072451694202126 
-0.2561079644594192 
5.072760460806302 
4.915859354600979 
3.069356207912 
1.065119661905411 
2.303907808883705 
3.375455439223173 
1.035428898151177 
0.4978074084966719 
0.8979949087036507 
-0.8733796756626636 
-0.3407806323521753 
0.6386886922904712 
5.116792574266837 
1.913143010591831 
1.316096661646226 
4.33568980169497 
1.50820358255669 
2.475402928151179 
1.446600742145427 
1.303218869196181 
2.09410830085027 
1.74027435411814 
1.686108143335071 
-1.454561985321706 
-0.6631942542990263 
2.82178697352177 
-1.469583703105075 
-0.3732216399077676 
1.225547334781881 
2.426365587061937 
2.462027142069098 
-4.850298342697028 
-0.9935681033146636 
0.1588512683512026 
2.854189499797657 
4.267961984154974 
0.5759678744249683 
2.059191202736104 
-0.184980516958383 
0.3158636699864413 
1.353091836744394 
3.384859612768674 
1.344676230541404 
0.4580848179369725 
1.651626129046762 
4.77150495583864 
1.277514040514639 
-0.02257987195620427 
0.5737838172444856 
-0.3814482619980372 
2.628332886884416 
-0.6058816201192849 
1.272666376034565 
2.548244142765147 
-0.8989648737007545 
2.661552545537788 
1.983002426363815 
-0.4783193316946808 
1.503609601111175 
2.592041239525409 
2.692631259352203 
0.6520194863097897 
2.568318822117461 
2.044687847764724 
3.132763849901416 
1.180080837537912 
1.236962049931366 
0.8370099535179145 
1.076336773185415 
1.592691717965046 
-0.1301053589406159 
1.471707588026147 
0.2101083373064419 
0.2017420651057506 
0.6060940877684057 
2.49880394876332 
0.3822010577421533 
1.194882320086776 
1.147504660946596 
0.06121766985398145 
1.325767820334441 
1.207892072260841 
0.8063848820834859 
2.596394512523983 
2.143722796441376 
-0.2687457442396136 
0.9335937735507821 
2.511763043129176 
-1.447231108802197 
2.49587767683969 
1.46329474337669 
-0.9124434367129014 
-1.262836547332809 
-0.3035684206170712 
1.822393554999715 
0.1974211339392483 
4.550918401309952 
1.765787233797604 
1.053162203364944 
2.155570916747532 
4.397327016034204 
3.507860666438753 
-0.4827554477758914 
0.4202596150278638 
1.635250161319464 
1.283009471389776 
1.067971227156074 
1.59514270150504 
1.478091702963915 
-0.3817680558371479 
1.452527834897657 
-0.2833765337816905 
2.731445296263638 
1.085928629497848 
2.822794123839269 
2.753211921471522 
1.823444507971505 
0.4013576162351309 
-2.216375686377746 
0.8899697497460859 
-0.9160803315000169 
2.142918042982159 
-1.45047546656736 
0.8445646693805964 
-0.8182463151843311 
0.4312466351460996 
-0.5152529207684928 
1.063692214991063 
1.812257754158774 
-0.7242980299568993 
0.6104614885127161 
4.165576825324724 
2.151166517885168 
3.172207988249307 
0.7186025817963366 
0.3230042581554401 
3.167691267129797 
0.8247581094922734 
-0.6002452112375276 
-0.4255192027548749 
-1.895996143453811 
1.328405574628864 
2.081582427153795 
3.917999798322281 
-1.000340346330548 
3.111284320986569 
-0.9687413300127181 
-1.054664996141444 
1.710454473742954 
4.382230665236664 
1.152999244132393 
1.054908047019511 
2.001200588414892 
-0.6653655658575531 
0.1236629820253008 
0.1900763604645907 
-1.104625750561937 
4.32293317269013 
0.1407039962799371 
0.5699766294678676 
0.5325195782226166 
0.3135251637403784 
-2.743371065822822 
-0.1223601032804735 
-0.1223601032804735 
-0.1223601032804735 
-0.7179109501394347 
0.2989438708523875 
-0.5656913085215035 
0.4382698582932937 
6.270664203078973 
-0.5090011963917024 
2.99967866489856 
0.3797007932807034 
3.271974402927111 
0.8371309310439916 
1.584650051723549 
0.5657750274255752 
-1.521308155935384 
3.300571316260515 
0.5766820050768477 
2.827636080039371 
1.005440126856052 
1.964240526322276 
1.664481619086476 
1.051081867854556 
1.395032649415256 
1.670244907362139 
0.540219903159304 
2.592502135812161 
1.175740402784187 
0.1898511134251873 
4.199277273307421 
2.926833074968223 
0.5000154560525106 
0.2757958904150902 
1.205135600127965 
1.123705406185657 
0.8463757900016255 
6.575138048090564 
1.518103378431086 
0.7438759421317103 
0.4379405559925174 
1.080436307044378 
3.123711202962113 
0.6753061809494031 
0.8277250654093966 
1.868905834774312 
-0.06023016917672767 
-0.3974771418432527 
2.414326404847923 
-0.4354170203819727 
-0.1550163421993126 
0.332093797748494 
0.07359790585856492 
-0.2628981827664423 
-0.06774370447766448 
-0.6085767015366197 
-0.5433134932336015 
2.719371588617657 
-1.212089968794636 
-1.289665186271 
0.4709836620411084 
1.36883208741112 
1.562269031819406 
1.421327107416432 
-0.818742037720812 
-0.4677700155572986 
0.2872559026238761 
2.51105823489687 
0.4180214349190032 
1.615370715396538 
-0.3165545327787674 
0.2785112704073493 
1.8306883629823 
-1.21934578904787 
-0.06232011510083937 
-0.7491156842767012 
0.9482210147175334 
1.796328533778912 
3.508672543886362 
-0.6713563997006771 
2.232144794223408 
0.1248991297271853 
-0.7873996438101818 
1.503274211180426 
-0.09323561029239279 
5.872701376885087 
1.880702922617838 
-2.078903005236686 
0.9551225498944224 
1.09724843003923 
1.457574464022554 
0.2114145939507467 
0.4305482141032396 
-0.2127820769838836 
-2.155623115857817 
3.545210257262918 
-0.3164215785785131 
2.16584241010439 
0.9616234690591103 
2.55422580108414 
2.875451387206151 
2.398698247415584 
0.6560016166175241 
2.14048170931493 
1.112859682649036 
-0.2494862387042258 
1.123448184874822 
-0.1980063307586811 
2.460692132575303 
0.730149474596816 
0.0195083500395265 
1.105765664680132 
1.098884422224655 
-0.7380654214145458 
1.574534202915776 
1.022608621914024 
0.8449969231942462 
1.501545077216817 
1.576233056533751 
-0.5314801463431246 
1.191243079508184 
0.4700929952595951 
-0.1662124303985231 
1.229671144647031 
1.713929758475457 
0.3458814290221001 
-0.9984175538970418 
0.03351581033097452 
3.647099881809354 
0.5581013598973086 
0.3764233840780577 
1.254504568747157 
1.527863351961526 
1.173728685457332 
1.109407336228665 
0.5656316959670999 
-2.089767556809694 
2.78049912891507 
6.728703876756872 
0.2606476497512396 
0.3994587598082644 
2.170986925171809 
1.831646857295269 
-0.2749521072238865 
1.334666806394152 
2.123435073637762 
-0.2268601969994823 
0.6947899201363426 
0.3477342932314829 
3.43458710989445 
1.38260098744199 
3.454676118789767 
-0.6836772914300007 
4.034048035997315 
0.3070331859409575 
0.9566491382834008 
0.0645431978367256 
2.7101967478944 
1.989317290009493 
1.545850683921325 
0.3269517864388192 
0.1099342208799822 
2.570997697275401 
1.237696045773579 
2.377729504558457 
0.8760322497817918 
-0.6153155654781756 
0.9795460597907705 
3.526144144064406 
1.982887814856867 
-0.001510439477826475 
-0.04126007946794055 
0.44730658812672 
0.6291910209637319 
3.293133124654021 
5.393971869653523 
-0.4115870113853767 
-1.102148768360018 
1.992648520432044 
-1.613892333994112 
2.497733292705334 
0.1317160592863029 
0.2513798289352784 
3.537784105366254 
0.7100156456998666 
1.578743570817956 
1.435967740467011 
0.1134212517706454 
0.1253775465704205 
-0.4843121667294091 
1.61557085044541 
1.351417875128748 
0.4886103021862538 
-1.948236155981712 
0.7486089425538029 
1.017847786786424 
0.6278555786804449 
-0.9871907659143127 
0.5927135018186938 
-0.1595597749478184 
-0.1351930935642801 
2.223301325800601 
1.054458714606369 
2.399069166969372 
0.6868530512045977 
-0.6816602676106354 
0.05390967958658299 
-1.703979922026353 
-0.9642468515631284 
0.5518365020796555 
3.350802686982139 
-0.3050005713737894 
0.5052249717106709 
0.8201644438799325 
1.853591680483298 
1.15887297754792 
0.2840411464489883 
0.6591886078723168 
1.732312544775733 
0.07988270745030408 
1.832213025234126 
0.4042095609223264 
-0.4829123295324377 
-0.7751775778520885 
-1.430519587776424 
-0.2686811734864904 
2.371685904932382 
1.386956054424346 
-0.2381615300687121 
0.4004921212097705 
-0.4601610685562932 
-0.1316386543559432 
2.404314955695321 
-1.163046759510018 
1.536414039973754 
1.91092165575817 
1.850347849202675 
-2.087999076574858 
1.698384379847782 
-3.723825787693424 
2.77099902501975 
0.3864759803450351 
0.3538797350017538 
0.8205888461803024 
0.7744920392944211 
2.330777151284039 
0.5992782830365467 
1.891699493895548 
-0.6371460921394789 
1.950291341896329 
-0.2431017224386528 
0.244537741910433 
2.733213126666696 
0.613746874907857 
1.651145105209545 
-0.09588134594446979 
2.661401923409282 
-0.0006692965426952496 
-0.7392559366810132 
-0.4750331053436866 
4.846251599914568 
0.9998881129809128 
6.388877745915283 
2.586997832838549 
1.121633293204593 
0.3555346972190859 
2.49737941651297 
0.7849979893185547 
-0.3641940756642228 
-0.4393039655874618 
-0.3879922626600076 
1.784387115234647 
0.6638921254673352 
-0.6588911725881982 
-0.573827324944194 
2.682490927982727 
3.377051506142712 
1.725393996437207 
0.7384239346280532 
-0.8753367173452016 
-1.219388649014849 
-0.06847563890775014 
-0.6793622194101833 
1.768838911603173 
1.39209946227614 
-1.073076073035145 
1.453824991490487 
1.985124734744827 
1.991479780272892 
2.618580173859624 
4.122189002700749 
0.8898152228626707 
1.472707846382444 
2.616249591750947 
2.192419753770122 
1.304543710940962 
1.650009856731645 
0.7982910300190946 
2.758048281003771 
0.03644456596289911 
0.1542954032511632 
0.2818102072120421 
1.307571869470148 
0.006442817171752602 
-0.3174401480935365 
1.204073477154719 
-0.408720952597821 
-1.065144078653872 
-1.308232354557411 
0.5480969929808799 
1.995570823015187 
0.6667607656408895 
-0.2157746650129369 
0.6453773651502598 
0.4332181618214105 
4.197678484917401 
0.9906275104029224 
1.722344259665965 
1.525428621546761 
1.935804454076657 
1.612915835820363 
1.648639833853742 
0.6831332398790785 
1.125752419312287 
1.091404907890191 
1.801121106440935 
0.02083659000825779 
1.728288473297392 
1.091190898658315 
3.082725289972541 
0.692887095951805 
3.466612565380574 
1.307414055624398 
0.3528522193044313 
0.563194723728859 
1.452703640430516 
0.3434208877324536 
0.8008838106730074 
0.6694127771003651 
1.218484993776856 
2.780375148744356 
0.7505050264353674 
-0.05129972129123989 
1.845301222794661 
0.6452755142714169 
-0.6233300511387975 
0.9488176670731799 
1.115544198525816 
0.5746682674191103 
-0.6890412489488109 
1.721033579624945 
0.9777224563382247 
1.418098654355179 
1.490965296325107 
0.7695849687897913 
3.813167578578072 
0.9895636468178325 
-0.215697833554383 
2.633175640750351 
-0.3457925265123528 
0.7589327876104144 
0.7771546680085327 
1.519673625678914 
0.8590919785048895 
3.24291523498669 
-0.5941484251115624 
-2.565849447258845 
1.343279716075246 
0.9997592769191787 
-0.4808157971956341 
1.731970952693017 
2.989015864492766 
-0.4745252463862674 
1.288512106122265 
4.644819454790301 
0.5515565944018639 
1.101213448818043 
1.105362364274199 
0.1095994527934765 
1.822895190066618 
2.524236832886298 
1.488615445109641 
-1.189576901963387 
0.2149863119500502 
1.872693252588683 
1.247466470037868 
3.621404821906481 
1.771691512299687 
0.5114437670720614 
1.08138757319329 
0.2359788642420579 
2.345488930139676 
2.39097469280836 
3.06235455031841 
-0.2802984704751819 
0.2553048171819113 
2.04924545872931 
0.9704703093160495 
1.941303861594383 
-0.4012860843232824 
1.597476360677948 
0.09048672789501741 
1.361122409853847 
-0.1933412531925175 
-1.053328870994609 
-0.5428816304570453 
0.9177736393311831 
1.448759557472595 
1.664311447188484 
0.2184363236657497 
1.7635484695628 
1.754519386708646 
2.835840334981888 
1.417298756331167 
1.985917331646954 
0.4945038827519496 
2.445332185289037 
2.29472642587015 
0.2714230141788017 
2.477989008327159 
-0.2347219896203416 
-0.5349497898877736 
0.6904257184269874 
0.1317940323634224 
1.037223062862516 
-0.7546647849096179 
0.2029544435585054 
2.406057608229543 
0.5032243570280006 
-1.084794152007994 
-1.37472752037888 
0.04031468431272448 
1.810109967229492 
0.499311029410708 
0.1178558009582099 
0.2049543654152101 
0.9102687810341366 
-0.0988385169059461 
0.6420606129151623 
2.385807383029847 
-1.870502288415789 
0.4154461741050775 
1.362863933718318 
0.5611650743798656 
1.926854511286883 
0.61280134402228 
-0.8778947831660667 
-1.746706031559641 
0.5998221562634209 
-0.3090512736032368 
0.4460876487014014 
0.5145159984112434 
0.328508943957336 
-0.04297008276525681 
1.571514135153097 
0.2279320865642117 
1.044514011251706 
-0.004220592970316989 
3.004280432399569 
1.694553596111488 
1.305625777877744 
0.3177954513857928 
4.386338753030229 
1.795923728037487 
-0.221245732650304 
-0.08896582310543759 
-0.09599623010756855 
2.248677466226993 
0.7780927595610898 
1.852896028655818 
1.246320679186943 
1.94977863070728 
1.202084410222279 
0.7810612126128073 
0.2164689142064993 
0.5251239789223127 
0.685571027727125 
1.09609778342751 
1.821466212819891 
2.898212632231747 
6.309235013904343 
3.416842520816292 
4.820836644991506 
1.236020427755136 
0.3897374514861625 
-1.041428148402241 
2.199730969271957 
-0.08131763560751236 
0.163311088331671 
1.263690188622542 
3.21767575647283 
1.329173440308641 
-0.7640654409927298 
0.6638312763900441 
0.5023157512750879 
0.06632119224821821 
-0.3730608590162017 
0.429646582193544 
1.410836826258827 
0.594364648630248 
-0.8467189880503639 
0.9583371037079164 
-0.9470613246719983 
1.739008256964546 
0.8002344632250207 
0.5247564669103182 
0.04732582939953658 
1.22938863588965 
2.086179345181634 
-0.4500947456175192 
0.195911125217548 
0.9801120650845601 
0.01810359422871624 
-0.5113300325183956 
1.856236459679071 
0.9061426828290305 
1.388855546484187 
1.394021238345524 
0.7298963550703681 
1.270660407139437 
-0.03173705881973427 
-0.2172468632256098 
0.1329903368534744 
0.6070483670818122 
-1.272664682926531 
0.3950161207913324 
2.207803134310683 
1.549760538844514 
-0.9403113586046496 
1.446755150091434 
-1.207077117014585 
-0.1271458001661764 
-1.364223945646168 
-1.702571316409479 
-0.5674280508996272 
0.9577047905948096 
-0.8126740725322532 
0.4186941879510099 
2.831524459195787 
1.861694728076503 
1.450299611259392 
1.584891047438353 
1.075396147953546 
1.403659890980706 
-0.1113677707889654 
3.494231672400309 
0.7332621813797983 
1.790660871430559 
-0.5103542461191115 
2.60150061096212 
1.067677624439218 
2.595149149028998 
1.774499369303968 
0.2791985679892589 
1.766121993097351 
0.3205822690861063 
0.946186749180885 
-0.8420749687950583 
2.505662571831785 
-0.4720830031367886 
1.604049543647417 
2.252593691209666 
-0.4182669457950736 
0.5808776654635008 
3.446293440018555 
0.4106000493075615 
0.7983498276748116 
1.338447527490041 
0.4583098441180753 
0.3188496895639243 
0.2497428408867695 
1.872915827817436 
1.210452076841782 
-0.7787553014168346 
-1.011888330715676 
0.3154133986179711 
1.832639411288923 
1.86244401068526 
2.386308997019098 
-0.4897911630035971 
2.218080903210084 
3.610782816716273 
-0.5499193970124685 
-0.01879750054562698 
1.129715594398541 
1.243101165873503 
-0.2598785238244991 
-0.9291167330992817 
0.6313298762840917 
-0.01547479467971835 
0.5581992097139035 
-1.08736466014888 
0.5355948661317399 
0.6867976984825097 
1.530858248481895 
0.6034888046563198 
0.3934405289512925 
1.154344157712849 
0.8266172556339353 
1.69061939974032 
2.593242680198938 
0.7389556193533207 
0.6407793155659438 
0.7882982470235952 
5.054402832619965 
0.4597222766915453 
-1.754637161885799 
0.0852284513103494 
0.3514857622732368 
0.274746062551996 
-0.06491691085240826 
0.8105812381981357 
-3.0856087711092 
2.501494147104355 
1.657181655374159 
-0.673830585566687 
2.922581358559404 
1.27378485750223 
1.899387574989773 
-0.1921078593927121 
1.839835745103943 
1.556978529867033 
1.625371829114274 
-0.83998680825995 
-0.7478781080579932 
1.385235319207329 
1.613387484780843 
-1.354252517746796 
0.3308353522344575 
1.235970666318599 
1.598153286335892 
-0.9646713998797197 
0.4038125297437417 
-1.446951570240329 
-0.7027355012263926 
1.536966401767834 
3.913807881609797 
-0.2096254715783418 
1.64154873439989 
0.9760917107230045 
2.321963594471133 
1.505174584422364 
3.08829519875863 
1.671439607323692 
1.32729241044608 
-1.285794753990943 
-0.7337536375932342 
-0.3151536701077166 
2.109253165516342 
-0.7285956775856053 
-1.463763073269182 
-0.1977500614611831 
0.6354741507249775 
0.07315469792576194 
0.03586435722419126 
2.985578121664884 
-0.4898183767283274 
3.494007242993852 
1.128163393874878 
-0.9022341631070996 
0.854232764088397 
2.33172435650757 
0.7077958607632933 
0.5136593063922588 
1.051002597042044 
-0.1410329927379467 
1.554984310485163 
1.318032180601801 
-0.8623884651322444 
-0.1693519749537203 
1.050191137465179 
-1.127978244436604 
-0.1426497436410874 
1.20798077281276 
-0.5522967283541774 
1.667451974410598 
-0.4798017965533409 
-0.2478309705909192 
2.324374456784581 
-0.1306279865323662 
2.613837427589438 
-0.6477265211056462 
-0.7224032404230624 
1.281222119748981 
-0.03368492448519041 
2.169895617816578 
0.3288701401165873 
1.366793427551457 
0.5348070699141841 
1.956203237019663 
1.858143445401 
2.250011094614832 
1.23498757991669 
-0.6379144297395762 
2.34529109038382 
1.642416341528316 
0.9829015508731924 
1.205984882085068 
0.1162387149396759 
-0.1996415114797078 
1.495760522733206 
0.5896212939462854 
-0.1271006356931521 
2.184273354690197 
1.425803325157527 
-0.6402182361492605 
2.148955207449067 
3.337975093491206 
0.6012648514898775 
0.5668294735799103 
1.215324935416049 
-0.9102634645391873 
1.63885973111695 
3.29057944308018 
1.490466984301259 
0.3719429110347182 
2.077959394225608 
-0.7226204551698194 
-0.2706846335233678 
1.054344483261617 
1.363162056432519 
1.529067907915892 
-0.7178766514406046 
-1.510731842503907 
1.531500082651013 
-0.3968941899829499 
1.421499950753671 
0.5368240672022102 
0.5937451022425706 
0.5960119753005731 
-0.08727285100488857 
1.511621438535229 
1.272636603717016 
-0.9031627344095099 
0.2823524611542761 
1.293514550337624 
0.09796959597446243 
0.3830624068520588 
0.7600393768651322 
-0.01565814701044332 
0.6649951225230637 
1.211669532018268 
1.42903407516047 
1.527756793559341 
1.061084891656816 
4.683841585837996 
1.001280428253903 
2.8327882769445 
-0.2482474063236224 
0.7289558320178273 
-0.7804039944651922 
-0.2979190328653098 
2.288814577119109 
-0.1631600995892206 
1.513054463226617 
0.8070109604820467 
1.581228108069104 
-4.265676533048145 
1.821953284816343 
0.5943499509576184 
-2.383750741781733 
-0.01710428851116053 
-0.08675178672433076 
0.03928772188876815 
0.7864182615565711 
-0.2613911003642912 
-0.1267708888177642 
1.290901355607982 
-0.3914180714499187 
1.567809794359345 
2.009538412327802 
2.411401329195702 
4.243961293248215 
0.4800185006102691 
0.5210022970171719 
-1.490285903854641 
0.211471418303039 
0.8519185345596668 
0.189264418794343 
-1.232156841719131 
2.676733142014202 
0.5865005237937477 
0.5505553320167842 
0.4251749547862689 
3.607215797990959 
0.6412426843982328 
1.250847405288477 
2.236221070654222 
-0.7320812166698536 
0.1626348709045731 
1.265719543851205 
1.73954756017968 
0.8562186838916198 
0.3052861073850002 
0.6079045425599923 
0.05155810591667565 
1.244450430347404 
1.460374619463055 
1.681700129459242 
0.6710738082795995 
4.347654256888959 
-0.01360850299894299 
1.752903016453256 
0.8519467581574393 
0.6684877009584195 
-0.1581466420554061 
-0.342558868069645 
-0.67112311857264 
0.06055713873005674 
0.3856184221469864 
0.971764288208447 
0.6666774442741716 
-0.5675939874143693 
-1.345835298010722 
1.177217434289822 
0.281080092991997 
0.1650324552059416 
0.9633630645549702 
0.1025896243811922 
-0.2453606674871334 
-0.002791688547879576 
1.798709880336033 
-0.3331270348411585 
3.950758979500719 
1.884245641114657 
1.064736038994235 
-0.1825763530814076 
-0.1309801801946624 
0.156003723450216 
0.7968411814712072 
-0.03555392096664688 
1.180360442959548 
0.4513109835607466 
-0.4632763624754575 
-0.4114782966747312 
1.953092213913477 
-0.2081632333740604 
-1.407250319720438 
1.970132306097149 
-4.596097168200112 
2.988087631421285 
0.4461783392599341 
1.741214683159576 
1.547577820618999 
-0.6556322518919708 
-0.2045694312626202 
-1.426008825927073 
0.09876811766586109 
0.6862678181624976 
1.399850879057466 
1.90449502729119 
0.3114179621527339 
1.719575412562422 
1.377998190708769 
0.9194069390398775 
-0.6592892375416211 
-0.2523274353073111 
-0.2608418117803605 
1.677223277873979 
1.161040985368613 
1.490970451940881 
0.7081797299264169 
2.425679815169805 
-0.2471955060324192 
0.3429321255560077 
5.023489963017643 
0.2906824547419282 
-1.461985730320849 
-0.3728085411153359 
1.48518414683521 
0.1542033915174385 
-1.128356478265165 
0.8518247571653931 
-1.524385077241646 
-0.8456979195994334 
0.214699976987173 
0.2170226371861691 
1.262095445392971 
0.9012316018403354 
0.05905635140296658 
1.089768588286507 
-1.337605193616216 
-0.0870770349640043 
-0.6906136135164096 
-0.4740750541839185 
0.8033492577944574 
-0.2113574610374574 
-0.07666108717389619 
1.742137999934065 
0.9447046152647955 
0.3875298616092954 
0.9206971219149616 
0.697567749305772 
1.198125649009337 
3.073290045163548 
0.5199988311177636 
0.5443535967925763 
-1.884204113906176 
-0.02778943904987365 
1.0805582233985 
2.280821812834962 
1.5875408794689 
2.711645150822604 
0.8466247196436538 
0.5204299259955235 
0.4587118182448253 
1.711939487955694 
1.106011181187386 
-0.1191061719848314 
-0.1188364171971363 
1.402592222318966 
-0.8611147326221412 
0.2659179937419139 
4.318542795676868 
-2.087685601615275 
-0.01405933062140616 
1.458905008151429 
-0.1371170074810526 
-2.100019784916995 
0.8490226562115953 
0.9882288193156765 
2.336144558313 
2.690859197699427 
-0.9503766227437516 
1.018305583172187 
0.2190415725022901 
0.8703427893593346 
-0.1872445512246657 
-0.09659765152553876 
3.088014970559864 
-0.13539426821442 
1.547155358529708 
0.4368482036884525 
-0.8610163656233865 
-0.5934104768965995 
1.274652006363604 
0.3665927856463076 
0.6279700737710612 
0.5119488058012177 
0.2979792119547075 
0.4976619405869115 
4.563939577757917 
-0.8435452145727169 
1.748289675274228 
-0.09933693832649262 
1.941549952272668 
2.537674304515776 
1.115745967127009 
-1.612726089203508 
1.718205691336175 
1.523405056401726 
2.422764860449577 
1.878861105563229 
0.4358823125084785 
1.447200857750877 
0.6745616454390141 
0.2383056880736668 
-0.4121715253488233 
1.598425308951039 
2.28279419484892 
0.7725770777564225 
-0.5563232108266294 
0.3701498737124236 
0.9591004071418724 
-0.1414151379041388 
0.8747742603649319 
0.4522982597518658 
0.874874183465018 
-0.3578929612377293 
1.774762635251673 
2.414125766653249 
-0.2304529751808457 
-0.8588165018096712 
1.427789797464307 
2.637943217446322 
0.3709926899955207 
0.8682753814839691 
-1.796553052540169 
-1.253310194799547 
0.381424266111672 
-0.03472483995552279 
2.420174579863966 
1.382368577477431 
2.194378920791587 
0.4108320337333037 
-1.006178043405386 
0.3033053713883929 
3.241168202704467 
0.5632245555570948 
0.3408283956623257 
2.434999579549261 
0.4699436756421294 
1.967762008817777 
0.8880667722641923 
1.036535785260957 
1.352460870137665 
0.8523924896656813 
0.453696609757187 
1.616916046634828 
1.399224712928203 
1.0198958276952 
4.561134660433805 
1.055441042140836 
-1.348459492282469 
1.835880729296731 
-0.132127260322651 
1.958114418637939 
2.184290837587022 
5.009439943933166 
3.599240189917845 
0.06700085875933587 
1.763476747008018 
0.2174449071501772 
0.793624467150907 
-1.002829147474233 
0.751515371425714 
2.068756193405802 
0.6210916070356679 
2.066858567698714 
2.204828379315293 
0.6288689765638259 
0.64824319987248 
0.4135975064789496 
2.202693582927238 
1.34312150063633 
0.4793843415033464 
-1.587619142593411 
1.614636851506032 
-0.2784561294333987 
-1.17110722232958 
1.695908116681638 
1.786744836004902 
2.97033103200577 
3.464375964784291 
-1.263564837080101 
0.3959843964314548 
2.987561647187611 
0.8213664402396776 
-0.3857605671066253 
0.252789387064894 
0.456761892036573 
0.9872188810074861 
0.8019894029305679 
0.670198985993634 
1.416912679563792 
1.164927133230391 
1.206587364151414 
-0.0009446467725068852 
0.3173954386298449 
0.7776548702081698 
1.085219457541954 
0.3381658634209651 
-1.293870270783063 
1.307446293266749 
1.597388901379017 
-0.2076035826659161 
-2.784970478672738 
2.935020461576831 
1.028464626583291 
1.910541632446197 
2.444229535617623 
2.46252136998405 
1.542510614289607 
1.182551289942977 
0.7623324417481253 
0.9123531822771841 
0.1589697013783088 
-0.5265215182324294 
-0.238441259620234 
-0.3392538212519323 
2.421603157071649 
-0.2670164731509888 
1.683830098130699 
1.437332545754597 
2.598089826761864 
1.762244239506928 
1.426972688575421 
1.267204498383428 
0.7091519528975149 
0.1837716675180217 
1.002931174846239 
0.2711353214138595 
1.090533601992351 
0.6606140722402297 
0.3881225249968261 
-0.1769643721525822 
0.3099043975139337 
0.5952682646526064 
1.736461035997312 
0.4566254735544254 
-0.2691513705905484 
2.689635117339347 
2.085664936696489 
-1.019182890500023 
1.72108587891889 
2.187382338669664 
-0.4293599728086679 
0.01836637152029902 
1.632825618245469 
0.8272694187309306 
-1.149830196159205 
0.6284440187761262 
1.455853495260113 
0.9106682517665379 
1.324685362145881 
1.488891177672559 
2.236312201636198 
0.7615729781314778 
-0.866649758963485 
0.1988152540758179 
1.351711721406282 
1.044569775614801 
1.518032489198753 
0.3908672015091498 
0.1024148618818733 
1.211521926812047 
1.334836251088075 
0.2371357409048294 
0.8102107074289091 
0.9731074988789971 
0.1885971611002223 
-0.2695280997753055 
0.8104126901100392 
2.142439182035156 
1.283907246270726 
2.732474223980784 
0.8461725931810363 
0.7964867207334662 
4.842751191447467 
0.491545736973276 
1.291192584913581 
1.133926719280179 
1.180181691253158 
0.4343948762662541 
0.9634522213716096 
-0.4612311932637765 
1.431273466845999 
3.142259919196506 
2.803477116024091 
1.675392509903023 
2.51775205350726 
0.3332899386682163 
0.6678546975522192 
-0.1894322376744203 
-0.07651168682415983 
-0.3121923416129754 
0.698575190456537 
0.3494372795611295 
0.1684433674301974 
1.869910785824369 
1.580744404974178 
1.580744404974178 
0.9561389275600787 
-0.8389377960276804 
-0.2248114776462794 
0.1887607169783861 
2.295515222906023 
3.964283838816695 
-0.6961510607428993 
0.3237279917687951 
0.1647681466448022 
-0.7780048738283926 
2.799002855088117 
0.6553864842028263 
-0.5402466013770305 
0.8433883867950687 
-0.2543790371942548 
0.4646716349709518 
0.5088671309540751 
0.01440145066783474 
1.118238655104527 
0.9552646532781629 
0.4978358473720011 
-0.9665757357584113 
2.615513923404249 
-0.09579395387691815 
0.1487767771652217 
-0.1674277269296524 
-0.9099317291920981 
0.9806960807789064 
1.603856033224234 
-0.00249486827336326 
-1.479893460059144 
-1.106884796369715 
1.311924601146677 
1.397289466259074 
-0.2618363298922929 
-0.585629492390032 
2.307474290152303 
-0.4677872851707152 
-0.5769174819190258 
3.795993569283644 
1.398171987828282 
0.7186167137687482 
0.7085426772300051 
-0.7566740557286693 
1.686668478181193 
0.5661502376268828 
1.498879143243458 
0.2823330588272812 
1.304706095919832 
-0.4968145425093992 
-1.590258332475263 
1.778280106935008 
-0.2009338467722797 
-0.9215132909368151 
-1.272116624616516 
1.46030857061776 
1.206768997234504 
0.109653263602452 
-0.9249171322503033 
-0.4851325967225261 
0.700949537634613 
4.465027294147742 
1.558282210391073 
0.4935692811863606 
1.768754567451008 
-0.1334415200578962 
-0.2935861161814667 
-0.3529270077043085 
4.263573098052566 
2.138651798931141 
-0.2471875337194601 
1.211705108984657 
0.7538766228161081 
1.206859371788473 
2.085667275361111 
2.018170028086781 
0.7383827477923864 
0.1222209513066637 
2.110494044545565 
2.518451037489137 
1.815523062309462 
0.2098636048271973 
2.419410386088258 
-0.8478571001865758 
0.957721537105552 
1.292352355591988 
-1.658475948024406 
0.4236811690684526 
-0.1914432441722509 
-2.203119831035976 
0.3567613089573338 
0.1056972629561208 
1.59866435697055 
0.8593628006732765 
1.296494898152406 
-0.6910650851393882 
0.4588758954239124 
1.273873568390683 
0.5219259143213788 
1.482546961736752 
-1.311488584187302 
1.485334008686599 
-1.186702304190331 
-0.04409672155449033 
2.173059095293858 
1.540153483687549 
-0.2461979994128179 
1.165334423134725 
1.701897487421536 
-0.6799176556826846 
0.04986530888061702 
2.889586713759288 
-0.273657879685704 
0.4816416717150451 
1.847511443433928 
1.159336760209467 
0.5786174703334892 
2.358558092893647 
1.33953386505028 
3.227416201647554 
1.586477291135926 
-0.1073847337922598 
1.161429946058399 
2.447298337886804 
0.6597741002623659 
2.131722709618643 
1.807303074966001 
0.9779325606574872 
1.920181983625688 
-0.1243860188510694 
0.2497946727315388 
1.243521606418458 
-0.5921469667681954 
1.673962643561459 
0.4778768398555115 
-0.6399749411127047 
0.5238041704977049 
-0.08731223052288421 
2.181677997702208 
0.3513345213800914 
0.921483948345369 
1.316326225328759 
1.521336916172799 
2.190425247831475 
-0.4564036630216108 
-0.183409016406551 
1.320167646506621 
1.874125005158763 
0.9936255799516093 
0.9589852443137356 
-0.5593301561320334 
1.737937018212458 
1.017538042510296 
0.26039634002005 
0.4384733073095901 
3.181340907923296 
-1.66551718479136 
0.4079283918166724 
-0.3699468141509576 
0.3974174933648733 
-0.3369171567987589 
0.6318637933416178 
1.556073950223379 
1.210163017434516 
1.428438580812573 
0.9457591670033832 
-0.0238920110252481 
-1.24812117466308 
-0.4848438929610241 
0.3680895450646784 
0.4660022754175845 
-0.1778505887793246 
-0.06857885401082899 
1.789370258126472 
1.189233539111261 
0.7341558029561148 
0.2443880249626683 
-0.3712762300723209 
-0.05547358237441345 
0.9995969951485207 
0.3849529586897754 
0.7005874891969028 
1.407826657684009 
-0.07462271467070067 
2.000789712019703 
0.1688917207758985 
-1.112649730052524 
0.844191449117414 
0.2098742368834461 
1.684058371083534 
-0.2082966538687342 
1.079590878397243 
0.4744007820836262 
0.2658635069402498 
-0.4697154838942976 
1.523062952473974 
-0.1346032063974083 
0.2295493153200685 
0.1321338235284072 
1.147989023500928 
1.078560182883443 
0.3702045363443834 
-0.388539562112326 
1.130947639024504 
-0.2048482595015484 
1.847953155104241 
0.2539205349403695 
-0.2850514517812841 
2.739401702082402 
3.47192128908117 
0.9733164664667795 
0.5161200767824707 
1.257020192476546 
1.100112550879194 
1.136786237778519 
1.100112550879194 
1.136786237778519 
-0.3911789326951821 
2.231790328594946 
4.06508868371921 
-0.9530608895111418 
0.3929726639084368 
0.8936079371303871 
2.193995697316131 
0.3624293688804209 
0.96598691144702 
0.6310315630812711 
0.06389271833652055 
0.7657004541644709 
0.132315040724104 
1.095449807282667 
0.4229650435337056 
1.936133501427864 
-0.4688810821996415 
3.528980717437712 
1.277100581102114 
2.486609603631353 
2.050717325786984 
0.4625772642719432 
-0.1673659559611745 
2.156005260093695 
1.648982203167337 
0.7805078904976154 
-0.2752732389818128 
0.08809169341204764 
-0.6413442376638095 
-0.03912363150096915 
0.6803161803868076 
0.6803161803868076 
1.085816592897058 
1.390233445315862 
1.025733431149259 
0.2703736111097563 
-1.45455442165817 
-0.09306545364442451 
1.451453631671903 
-1.539738543710041 
-2.481214828176981 
-0.2888149322130102 
1.814261038806127 
0.2609841176584735 
3.163537913299203 
-0.1805589277926161 
-0.6587053365847109 
-0.6515314549490729 
1.786561637192681 
0.5075499247452183 
-0.3776349789321389 
-2.36062676347034 
-0.3223901646848815 
-0.454018958679737 
1.245940519065348 
0.7657681117783798 
0.7102156981226966 
1.67968697671313 
1.897188774734535 
1.441052729411695 
1.270617384640963 
0.4320949616764791 
2.99246111387687 
-0.8629103250791059 
-0.4972117444735518 
0.4579304801661603 
-0.9906704984312672 
-1.694714309064003 
0.8154979703856794 
0.4890924012053272 
0.5711220911948508 
1.764770899491393 
0.1335815451270062 
-1.710292213584135 
1.642082091826175 
1.169295291503076 
0.3121852785070902 
-1.087261033069631 
-0.0007399652486744929 
0.7619911722343596 
0.2864996787778852 
1.223926851743523 
-1.439513058593756 
1.026508351272483 
1.732600801245379 
2.862823027438618 
1.65553046979583 
2.379121781289525 
-1.087166499325491 
0.3184098908720474 
-0.3696513435875968 
0.6777600069012903 
1.452644108405341 
0.2015875019931982 
-0.3428346307705899 
1.866563532405028 
-0.03135556799705269 
-2.383666092681862 
3.045544177742518 
0.036885094205071 
-1.188990115695298 
-0.7129864330617421 
-0.8826372136521189 
-0.09317269633591432 
-0.1501992405788565 
0.5134797366586047 
0.2633907307380213 
0.231760537345834 
0.5541019318296354 
1.594236578724867 
1.597250006699968 
1.635834523488423 
-0.02411876667234444 
-1.091634378816296 
0.9499479483161274 
0.6605473242987964 
-0.5565604097171053 
0.2747239566371051 
1.457810918211675 
-0.03193432321411833 
0.8700868800893341 
2.126138804717788 
-0.2270874956408428 
0.936012760876611 
0.4961719545837267 
0.87862542308486 
0.3917552109557438 
0.06375236261012623 
0.3594078215748212 
0.4340578078355426 
0.5379857781297156 
-0.1931120395307611 
1.506844047926291 
0.5076539845220868 
0.86780548381362 
1.081560101627368 
0.9772392709211579 
-1.811214851328605 
0.1956745210171677 
3.04890860271933 
2.571615996085875 
0.2343492402045535 
1.22534364320929 
0.8533975573577748 
0.8322462794125011 
-0.2983079352238243 
0.7447314672508967 
4.389406107874503 
1.242401794217514 
0.3335463221101055 
1.705356129159189 
2.174798531807084 
-0.02603525929608926 
0.4243571707805584 
1.469620149181505 
2.519407559918031 
0.301047344572857 
-0.1669667889411753 
0.3259168816868737 
0.1792263486052995 
0.9020006692366052 
0.3696632624992429 
-0.1820868896026465 
-0.05042021927815035 
-0.05720873353855455 
0.6077385485683323 
-0.2377964151861991 
0.5251121465050768 
0.2359082722471571 
-0.03876192250368561 
1.43938929266259 
1.092524522076106 
0.6470681665828768 
1.268351532802884 
0.4179596479854999 
-0.7545300551250369 
0.1348578071335238 
-0.2825024198228946 
1.369286720938656 
0.231196732892913 
3.556526048611618 
2.528888449013063 
1.557487770080599 
0.8164530429900665 
2.153098178830299 
-1.159265456172126 
0.3460668393403459 
1.655632634400691 
0.2619749549815645 
5.605120000316957 
1.116373048188078 
0.1758806281930203 
1.978674061655738 
0.03942848876028694 
0.8677759374438525 
-0.3726592179054022 
0.3177432501156489 
0.7256038326893349 
-0.5059363667413757 
0.4993963321603831 
1.161873992772167 
0.0433827263971347 
0.8468743743473786 
0.5766723702892749 
0.1318145253917276 
-0.3360202266849774 
2.674510744091564 
-1.147861684996212 
1.665414914835305 
2.460748938990089 
1.67875576822547 
0.4509646167893952 
0.3587002034522895 
-0.4642335430614051 
-1.06687278767234 
1.014239124699028 
-0.284576174977821 
0.1726474691925939 
-0.5114728977604407 
0.2370292023449916 
0.9795708326863475 
4.095241265973936 
0.1102572792139885 
2.835653744086025 
0.3808842426011434 
4.422268925115883 
-0.3238565395105978 
-0.1484468273672873 
0.6338912230732638 
-2.526167823485352 
0.6359030258348397 
0.7672814126696337 
-0.5060350399913691 
0.4793099094436443 
-0.4427029619160288 
-0.2618560424609388 
-0.3458163539219675 
1.22221736984318 
0.241943506824578 
-0.7363251827051189 
0.8796475150966541 
-2.347656539993787 
1.041172625168811 
0.05874766481364496 
0.5223380343890897 
0.3207663506069864 
0.6119537845973023 
1.549953172774279 
0.6846034914561223 
1.029639421483039 
0.3952687559498805 
-0.2937486715328712 
0.9256429959692922 
2.587903717158667 
2.639292896611432 
1.902676785600699 
0.1736141739476911 
0.1759970832778318 
1.124877903573324 
0.6674997185492328 
0.09636415688482511 
0.7471790990020819 
1.953695645265377 
0.926063759157036 
-0.3858397947970285 
0.8847569215712561 
2.210553681007234 
0.6426251090894365 
0.1175079536551631 
4.157121729400124 
1.875781404336055 
2.114472215179557 
0.4973696768328406 
0.5699251752796329 
0.9911359487988958 
0.3538793471488098 
1.777727526375245 
0.3507382488378702 
-0.5127286777767337 
-0.9150534482095393 
0.3329527274860064 
-0.2207641392723961 
-0.4602484636728005 
0.3868107403120102 
0.08173973252864002 
-0.879511154655426 
1.588459067559856 
0.1167640874681074 
0.3981744932036224 
2.959868016091861 
1.191974123938424 
-0.3138188686960097 
0.7952071556621706 
-0.3070746052794663 
0.04695143521358866 
-0.0462458793527767 
1.011738472399513 
0.06794764214125079 
1.978457060594349 
1.839214202834679 
-0.1629580997720815 
1.859649080896943 
0.813358613858188 
1.362550835017401 
1.582448516709391 
0.2196379719880378 
0.5721498733829153 
-0.2526369733659184 
-0.734048042575194 
1.057980288541897 
-1.28680030352362 
0.7732412559686535 
0.8867265962047701 
0.1869951059030135 
1.129658452163181 
0.9531278324087283 
0.7518254946460116 
0.3525356165795951 
-0.1644784544572077 
0.4872215573636153 
0.774284745822739 
1.100691396332198 
1.123592295057518 
1.801189158021367 
0.3831494503555332 
2.934148085268783 
0.5464505188006927 
0.2513058909623677 
0.3362832128021332 
0.7618479111035549 
0.9034215164612188 
-0.8260914669918302 
1.548894279214287 
0.2564599577151065 
-0.3842917473376961 
0.676438136439051 
-0.6324087043997169 
1.342071535500433 
0.8089477839114484 
1.507197397235917 
-0.5834519718919371 
2.118438747600982 
0.3111989240261496 
0.6380388183644438 
0.618276191125242 
0.1477402949766866 
-0.3351107756925142 
2.298882475193274 
1.449084648600889 
-0.4809652382511694 
0.4746042967587877 
2.107574374245123 
-0.05004911459396853 
1.026118139122515 
1.138883370280682 
0.812866591301694 
0.9204040464222369 
1.6491431343441 
-0.3491569126632819 
0.4006783222533383 
1.536402326567893 
0.6864436538953886 
1.878385114490064 
2.616785975011485 
-0.0194528227840147 
0.8246575219410908 
0.2068107862069898 
-0.09090357660484247 
1.552896425143681 
-0.835856259728782 
1.042660258598043 
0.1140294159345833 
0.07205401721593259 
0.6651565366100582 
0.2764245959760434 
0.99415588121437 
1.094013073662856 
-0.7122341789760845 
0.4130215485230991 
-1.230796558352971 
0.06321287656918045 
0.3890320480297304 
2.581000213677941 
-0.3071456388413399 
1.996653895568465 
1.487021827841326 
4.209042626484411 
1.29809811968039 
2.25989042050992 
1.774168843557727 
0.4787932780294896 
-1.297303340135066 
0.2837709845087171 
1.059767461962029 
0.454948561719716 
0.3994848129781165 
1.668879977721883 
0.5951010214164465 
0.8900103219341823 
1.026833613615579 
-0.3097550369005174 
2.4572026072608 
1.631594046463259 
0.9963442652633456 
0.7324308417415871 
1.922905028341598 
0.6413865804380807 
1.10898015096353 
2.180735391639678 
0.1573888736413753 
1.086431731696534 
1.765539877453444 
1.611292472408747 
-2.003667710161128 
1.017254335513197 
0.5523141277675776 
1.448233221968848 
1.148229306945607 
-0.01427789621244441 
-0.2663818211043448 
-1.251210907982256 
-0.2618351221872859 
0.967689380479353 
1.265788285552102 
0.4286028815611514 
1.961183105833177 
0.7072143553533671 
0.9000225284076202 
0.9420704007950755 
-0.6846000382861638 
-1.150706782809091 
0.1077281271131642 
-0.2287961464858852 
3.709278630211402 
3.279042518471713 
0.2974782392179168 
1.741759152771397 
-0.02657841745723041 
-0.3361612083009763 
1.619765631007782 
-0.2930812493276857 
0.5038126533306594 
0.8948336458518837 
0.8657548555928333 
0.8748154977669305 
-1.302036151554412 
-0.1341094439166247 
2.22236891641202 
-1.297961269088468 
0.3822434081757894 
0.1606221619523096 
1.092587173106859 
0.02162208813273345 
0.6874885422911551 
-0.9883322651828391 
0.5110868003023289 
0.6773871626601904 
1.501318332769291 
0.3843438086714603 
2.352632578446828 
0.311927033967946 
-1.297099656232484 
1.137045621000899 
-0.04684941746498683 
0.599664168193505 
-0.4693636811860607 
0.09118857872130658 
1.399102825794819 
0.3721027249346661 
0.3576103313403914 
0.6480149180636741 
-0.7242604067906511 
-0.1986307509252794 
0.8159391898941987 
1.773602337658117 
0.986329134689141 
1.61373666834683 
-1.002007127383656 
2.451943642685173 
0.6024026683999629 
0.0340530504463597 
-1.320545145282668 
0.2993749175554745 
-0.3750917999273855 
1.891107577232846 
0.704743358485706 
0.4081948396922557 
0.315632675978118 
0.3326353841944654 
0.7817817046271134 
-0.04016207819426577 
1.065824133556811 
-1.470111613820555 
0.3433120671528468 
0.8938299634795456 
0.2039290670260404 
1.087482004857698 
0.7778998434494491 
1.130212990976288 
1.337717176538054 
0.8291048491636841 
-0.2274143473264885 
0.4986577622612941 
0.7726490090082345 
1.087675904221563 
0.7469953121900788 
-0.1959501837651352 
0.9191045415809698 
-1.860546852195289 
1.172076428906801 
1.558061933168939 
0.05451998014661845 
-0.1153325211950478 
0.2331381774988309 
-1.673769426536138 
1.694945142245117 
0.6792521508741117 
-0.5408538901107512 
1.259330877588186 
0.02529586738976375 
-0.05028945989214149 
1.444239208808328 
1.324087537675314 
1.109552124582809 
1.429495645279065 
-0.4115139152586083 
1.891272190077724 
1.650342665719963 
-1.4170289237142 
0.4617899036069626 
-0.3054810114897542 
0.7530436106025141 
1.707015723628118 
0.1168693158087362 
0.4214139634573226 
1.462334074586706 
1.538142746021705 
-2.801915417509128 
0.3162826710288456 
0.2949379466606376 
0.147836221028994 
-0.5402678590205527 
-0.5766816332617493 
0.4004144670254816 
0.8026914312717721 
-0.158734985952889 
0.5554033331298266 
0.7500857606451741 
0.703443129432415 
0.7088992853187444 
0.5823959973337309 
-0.4609128947894665 
0.9382539839634366 
-0.07484019803323436 
0.8607038884596958 
0.498700993835152 
1.255107132692097 
2.03472532131267 
0.9911967322040861 
-0.2921630933387987 
1.415584001924214 
0.12028651907421 
1.758329765763105 
0.9617736768825654 
2.767159824899938 
1.076931860067097 
0.1132590361131267 
0.3047241039115529 
0.6683149598902766 
1.314816264209406 
0.3648770073760941 
0.9088450882870395 
-0.9346216382416779 
0.8245658000875785 
-0.3550944933242357 
0.2496040432334867 
1.03520088573006 
0.3918432360266859 
0.7708559585689236 
0.05838202657890464 
2.417830358333291 
1.176424754199622 
0.003390365933792664 
0.5285183289248843 
-0.2470099714246516 
1.420446487701009 
0.9251445646169156 
0.02926468426121352 
0.6500383336163619 
-0.3824025746593896 
-0.9806328772868367 
0.3215862293150107 
0.03053126932580155 
0.9942639087867773 
2.568961010584944 
0.7275624491369791 
0.1476652819786568 
2.288070608153 
2.527386573359335 
0.9729612075178801 
0.8984183559044686 
0.4292978709504654 
1.374695865953825 
1.16623527320529 
1.677069295567431 
1.575142788319575 
1.415037201693958 
0.5909119088988618 
2.05275204715794 
1.304073395426908 
2.196291041032167 
0.1216312805765836 
0.4488054820576081 
2.086960789612224 
0.2533214259241724 
-0.6320695203883023 
0.509935290591341 
1.10637595395954 
1.065318655091859 
0.5455017197824755 
0.974479330366694 
0.7274007774073075 
1.143998796546773 
1.621555359953224 
0.8893605977288281 
-0.1011893312031733 
0.8025143684441512 
0.005776986844990756 
0.4325022983372577 
-0.08524086204811679 
2.038293656949748 
0.4030434992606052 
0.659802965038769 
-0.8386851377252484 
0.8786284340533689 
-0.2787019140331001 
-1.438394773358909 
-2.137609674664225 
4.006226851254127 
-0.3228163821896155 
-0.03355841452565331 
-1.029309380201877 
1.303964194770335 
-0.8556315025504838 
-0.3268983610347463 
1.0716567976615 
0.5801981824210134 
2.35200865017916 
0.3294341866698094 
0.5207189756453944 
-0.1318704445299055 
2.324204481855877 
0.9395776824608242 
0.5757141035572373 
-0.6357598215424017 
3.158001303070496 
-0.8080856200526461 
1.31210713751672 
0.3151905308910362 
-2.758197336401185 
0.781785455943065 
0.6667591463514273 
1.73053025673074 
2.097121479500372 
0.1016567804137837 
3.031728197253456 
2.782496460866975 
-0.08349100796237206 
1.15511367397107 
-0.8828911868406271 
1.609881604592061 
0.8058567171587394 
-0.2905088538546313 
0.02085650510622961 
-0.4811630154452544 
0.6244804524691595 
0.606425453652164 
0.04541741261220796 
1.205399734605427 
-0.04984119512134445 
1.29188205348241 
-1.064174975279261 
0.1490155240776504 
0.9911536275910495 
-0.02474818564543836 
1.082393937547028 
1.871315800443557 
0.2546797383638122 
0.3458124813917031 
1.435126547308277 
-0.6320829727601542 
1.208611886369744 
1.327591511700625 
-1.216778779611389 
-0.4724010563421865 
0.1297496868573749 
1.969727131311799 
1.59846203192833 
0.8341325559579628 
-1.026434984242615 
1.056449091860402 
0.4277225733950017 
-0.5255245874951895 
-0.4321798554054592 
2.865537901375903 
-0.2819236924891959 
1.375972716978487 
1.798867371925821 
0.6904014792061101 
0.6354831263381668 
1.266488258845968 
-1.981171077907639 
0.3045120380737668 
0.1368845281586608 
-0.7280660718738899 
0.9099805209836005 
0.188149755422569 
-0.5042594505498794 
-1.032007171876125 
-0.7918018260466022 
-1.123731694716985 
0.2313379196097612 
0.03975396531697987 
-0.61350239877642 
0.4859223058793873 
0.2958920244217829 
1.679170914209154 
0.8151520368624906 
0.7471299274591244 
-0.01168225600520472 
-0.2098163244827434 
1.116995192324272 
0.4612143736075059 
0.5391481477156245 
0.2001031391788279 
0.3049069652026599 
0.9698778208875518 
1.611828351087392 
0.6139076384142068 
0.3004372844393074 
1.736066061335356 
0.04895885494492182 
0.6891166099971187 
2.555689464102499 
0.5819646981718767 
2.801381189112922 
0.8589823081911214 
-0.8293661951830417 
-0.5717131167943132 
1.617685259533516 
-0.7835616828530627 
0.26455712079808 
0.5594046790210386 
-0.05040064992987755 
-0.7006323641204266 
0.3479256838729662 
1.977306511339184 
1.416165903738666 
1.527536580736355 
0.6032796580702043 
0.5711927503007306 
1.154035942402548 
0.1180754556318754 
1.470278177935641 
0.4890081586695375 
0.1242811915453968 
-1.203755023945158 
0.4736734970995867 
0.9140753567014192 
0.6737602264060503 
-0.3099296586740856 
1.522832317426593 
1.130227781127591 
-0.1661632515730184 
-0.09021830060402866 
-0.2230348795397381 
1.714768700291493 
-1.439527246144629 
0.9627383947880598 
-1.383745627680099 
-0.3323015703926814 
1.76743308703152 
0.4399160573087558 
2.697029969411247 
0.2399042887498484 
1.602665957773011 
0.1292060488497299 
0.9139457930176196 
0.6962163334429704 
0.2964931190433576 
1.991806607867924 
-0.1736828581512877 
-0.5322275498510906 
0.8643723807129513 
2.873613762211411 
1.615596235085254 
3.080193796899235 
-0.1326857327550601 
0.3784618039356885 
2.226146064768462 
3.149877804862584 
0.6379431016809816 
0.3090522860093199 
1.037280210541971 
1.642803221812059 
2.445455609303307 
-0.2822160558110767 
0.9822477727820822 
0.8676115138660389 
1.230971778868307 
0.4291606762900392 
1.545642790503691 
0.8683430356666306 
1.086921911339268 
0.7329509200481807 
1.87497212169089 
0.1695132371043188 
0.3088422400447923 
0.876625846347901 
0.4973634597311099 
1.249060873502617 
-1.449676356458563 
-0.426042426408699 
-0.2593553857366886 
0.7249205305615429 
-0.8426680948692213 
1.03708886559873 
0.06397406332036593 
1.214931674941821 
1.437620084289218 
1.46891042541412 
-0.5954840267731606 
-0.0392664190803296 
-0.1151926961848936 
1.330096090105858 
-0.5705303777826669 
-1.09668383878455 
0.4688863838280505 
1.132103274065416 
1.786165742477136 
-0.509351252536183 
0.2778989867458547 
-0.3492498162090202 
-0.4808168416328469 
-2.934849258463308 
1.328193640801963 
0.3133679641465779 
-0.1839720641176842 
0.7535043773122549 
1.200393061421547 
-0.4803790013295451 
0.5418353204533897 
-1.044209304594715 
0.5453238626413093 
0.4323958759127274 
1.915019440319055 
1.31468392806902 
0.8973254094064016 
-3.011154867636951 
0.6070559586100824 
0.7718308963330802 
-0.1555062501249199 
1.531821109265087 
0.7608113990660001 
-0.6155369234139536 
-0.5199530344931316 
1.570640816722376 
-0.5393084583095754 
0.5127024996910255 
-0.5504752905046614 
0.4997077359341806 
0.1193414086196644 
0.3969973279909533 
-0.6916450487805983 
0.6712503304297524 
0.1558644068319846 
2.909891609137552 
-0.1202637712886066 
0.3634429320230756 
0.7664760750492011 
-0.5640474825681033 
-0.2837693320170214 
1.409884110111477 
0.1350907817450708 
-0.04391701427896005 
0.7260763435798316 
0.3545957851419657 
-0.9175850819483842 
0.8487302845211834 
-0.00497601601734806 
1.179692031930106 
0.6354069424098049 
-0.07461543410518412 
0.1602083490826383 
-0.07139570399009552 
1.186002407771418 
0.006248161957628534 
0.4725098464568373 
-0.01548942712549798 
1.68289559933953 
0.1452944278908481 
-0.7835768123600279 
-0.1686090069913755 
-0.4590014670914939 
2.027341921956877 
0.2258822862911718 
2.302407076558727 
-0.7871382851996311 
1.523198164159205 
-0.1797279810831188 
-0.9571030547075002 
-0.3229895649898752 
0.05356768220133215 
0.4647111863497594 
0.2676153888203015 
0.2446900704356259 
-0.279113724053738 
-1.394225593632091 
0.9044422208591548 
0.6159414863143882 
0.0463654077954178 
-0.4511299355717817 
0.2218021443648254 
0.7958368607549985 
0.06464173067061392 
-0.8923003012844365 
0.7297576559532817 
0.04275718380061271 
1.212161415067526 
0.6607869571440544 
0.2300894416314229 
-0.5901752758287482 
-0.3701450030550582 
0.4178498963707252 
1.56906607637536 
1.307047249189688 
2.408559020388175 
0.1435163094989794 
0.5477071360562803 
1.408955087364875 
0.2754510983505328 
0.7176729939368307 
0.2437275290466451 
0.5637883932294951 
0.2383380250693461 
0.5116834702291635 
-0.1433734044392295 
-1.281229887619251 
2.55378489698575 
1.653423984225445 
0.4405591226936872 
1.094780356336593 
2.062280612754803 
0.7754478306348529 
0.6518629448621568 
1.740885743759981 
0.7724461957451083 
2.276814676158314 
0.1673667582795021 
0.3825857920147087 
-0.6066610438558715 
1.363121122106792 
-0.7830509774866243 
1.971032826299527 
-0.357088241914745 
-0.2814800782616688 
-0.2511660554362782 
0.4357169655878398 
0.377102572583105 
1.195070745425438 
0.614892284538796 
-4.661759714563081 
-0.203676166536989 
1.463848207950318 
-1.173881753055046 
0.3395757002123629 
1.830178153907517 
4.12576725238458 
2.044142308642706 
0.492811810141705 
0.6534913128325619 
0.9389672195934559 
0.790720617602909 
-0.9255783068009742 
0.3682176605085715 
0.6363591233199767 
2.304903972048892 
-2.960203365302374 
1.145338909306677 
-0.05867785565015492 
1.142978351199396 
0.3412403960667919 
0.0739909320516545 
0.04173544538085476 
-0.3507214514732389 
-0.5385293920804908 
0.5137108525528744 
0.0885688367149465 
-0.1389606547465092 
1.502238736524087 
-0.7849873141883822 
0.6139641748327107 
0.2315279055475599 
-0.5283924822281625 
2.760726734639059 
0.4344206573577844 
-0.6366596083458778 
-0.1111498658522518 
0.7406920555437231 
-1.186873389340077 
2.354237212326012 
2.674318789796226 
0.3035519215224425 
-0.2595736544776433 
-0.146606563621767 
1.212486069219704 
0.7121256074886948 
0.401470311347683 
0.8435110059394012 
1.217632355519316 
0.5232318560333495 
1.395014869228238 
0.2550230711752675 
0.8382661029682841 
-0.03960205058458488 
-4.012355186970807 
0.8921872970383299 
-0.6068804988050608 
1.014851346868231 
0.6019720308910099 
-0.1434065472198842 
-0.2968455579271058 
0.268980530301873 
0.5717230839420651 
0.913546004812046 
0.794888723388311 
-0.1361507355388127 
0.5864863053582737 
1.220911541407776 
2.207852003814366 
0.01583172097031293 
-4.251064863931304 
0.4115950204074057 
0.37237750336815 
0.0188222326131021 
-1.16563303483885 
-0.1796103429967899 
1.510257427227245 
1.421568286734268 
-0.852661325581671 
-0.324483744588266 
1.341732767091273 
0.9402242559903143 
-0.02570066986884055 
0.3226526925981656 
0.1854416998910436 
2.694155431200965 
-0.6333088425769078 
0.5818730220832012 
0.9541131470021357 
1.093262938546035 
0.7606454321933775 
-0.0005657773484578216 
-0.01693811641044404 
0.3919182447250683 
1.710797006056187 
0.6202325029834413 
0.4912456807189742 
0.6897255822772974 
-0.07165451715273502 
-0.1012706003567882 
0.7817622779358883 
0.6898576351675632 
-0.5299727943921627 
0.6863869198326201 
-0.05465941184799773 
0.2485399582425329 
0.6361804350412028 
1.204756538667678 
-1.002404368366308 
1.235096149739691 
1.017397966899889 
0.5855302352521164 
-0.1837525734137944 
0.5429300616021 
0.1206582099595229 
-0.6713555749002115 
-0.2858538673210397 
-0.5295886263114231 
0.1751997344588043 
0.4331383113279543 
1.417181444627189 
1.527206960129234 
1.602640268480779 
0.2285807298910531 
1.118680546629267 
-0.6853701657546841 
-0.637993838139492 
0.7554863080242177 
-0.8621236324232985 
0.174192733786343 
1.818249444376613 
-0.1838018455864928 
0.2308829360994354 
-1.489156525195728 
2.540792933975252 
-0.7984522337891501 
0.7337369533257676 
0.8092181276906095 
0.1433641654372362 
0.3716023444495468 
0.5567048363681452 
-0.01934217876379589 
1.38030593856756 
1.045635534742494 
0.790919755538839 
-0.2138176317054686 
0.9907122693305198 
0.08792624202056715 
0.9792379373263539 
2.39364945853287 
0.8019931442389524 
-0.7669949453412346 
1.802990534375214 
1.132339140904776 
0.2018046388699837 
-0.7220693816802279 
-0.5365610953876195 
-0.05025867824530816 
0.2554885698785141 
-1.301841276661841 
-1.247593245307714 
1.9978462877542 
0.8948498941512651 
0.3877847802406192 
1.138707349358085 
0.6506062103481574 
0.4726788971723516 
-0.0792418883717837 
0.570702509754327 
-0.003611623956221275 
0.8535069372817592 
-0.2507457048301609 
0.04153091265336921 
-0.2297583270780969 
1.185574220276153 
1.008683556617859 
0.1713472991618806 
-0.03319665845314333 
0.8473676750071086 
0.2950132022407129 
-1.463097471486042 
1.095654559689461 
-0.8931416242961033 
0.6902099967693833 
1.443356099944759 
-0.4789500744061993 
-0.5928005913407464 
-0.2211262794331053 
0.3258827489096365 
1.461531771756232 
0.539899040744425 
1.123750797862803 
1.685511447006433 
0.0418563136318908 
2.455049667577283 
0.4141071254098509 
0.7491032753742833 
-0.2434474992819122 
0.1867805075780886 
0.1489184197203974 
-0.3683804307486913 
0.9517934568524369 
3.057321774190049 
0.4357773066828562 
1.867862277035524 
-0.1772324384942496 
2.707675264623592 
1.833033089807014 
2.826283561191325 
2.594317593737685 
-3.599936069293506 
0.8673367751174953 
-1.151379686433615 
0.8634741076871297 
0.02031875889957775 
0.5934941545159039 
0.2609312845430269 
-0.01638420262688706 
0.7587605231287046 
0.5789802510987896 
1.348440874194766 
0.3051718711285718 
1.284040584513478 
1.734053698824582 
0.05388365666405369 
1.207586937578392 
0.343369741430023 
0.6385723538822817 
2.308927662799019 
0.4928864651878878 
0.5726912261349713 
0.5722626976885662 
1.738601922167285 
0.2234721594275264 
0.4010196381254797 
0.2522511712138184 
1.278821802705789 
0.4860930028597324 
-0.02271008913591249 
0.2096764914216937 
-0.03739588326397186 
-1.011574342378421 
0.8225104806380583 
0.9023450220333018 
2.909106466186529 
0.1294579554826182 
1.707616221794624 
0.4567522367449605 
0.1061594600745756 
0.004844627205016765 
1.528509591033851 
0.1776828183846426 
-0.477198394061088 
1.034541229738184 
1.086207876353304 
0.6064794125216643 
0.08965066298221282 
-0.9907622194715413 
-0.4719758406968986 
1.923371490492132 
0.9532548160239369 
-0.01883346906399445 
0.5115315973384322 
-0.003271526015191178 
0.4699697238989293 
0.1032014268461959 
0.1826431503133525 
0.5288212387117835 
0.004361180352693936 
0.4638329253034941 
1.100807065234371 
1.218779401627943 
1.544664397195783 
1.321560305207202 
0.3827739132340551 
2.983974162860586 
0.5858290196270437 
0.3575036060727491 
1.137350712265125 
-0.1007831348144706 
-0.001907078321224373 
1.155094362516442 
-2.945825042472641 
0.822515301612738 
0.6019642519231279 
0.1887264702496599 
1.332598160017686 
1.765218294665963 
3.040158160869578 
-1.237002249694066 
1.569135066151985 
-3.543535730244574 
-0.1043181463974311 
0.4987353633589995 
0.08233830129089008 
1.058250964481704 
0.3616741811406952 
0.5451572993260068 
-0.3636207820878798 
0.3654739061963911 
-1.173593519060149 
-0.6647253048402291 
0.3361854963096516 
0.9408088185116558 
-0.05868729871989536 
0.05748339981512202 
1.974822748077184 
-0.117856863680979 
0.7707415648486963 
0.8734338932180015 
0.6426545811933808 
-1.138352056469323 
0.4724773108751526 
0.7000816699559144 
0.4698750065060056 
0.3095987767263538 
0.3651447440863648 
0.08001463633385181 
1.033143650814341 
0.166508821766859 
0.7678846417264947 
0.2860490485780902 
0.3786326548563971 
2.187774496442365 
1.345509744132857 
-0.02798758681554844 
0.8320805762402483 
1.229147348885915 
-3.623621022365892 
1.174694837679961 
-0.1368865685708033 
0.8412269840364666 
0.1929747237033141 
0.6974617599795653 
-0.1449070450861811 
0.4066331812436654 
0.2562560719879742 
0.2484690673804629 
0.1882139603498902 
0.2105797137095929 
1.148157763351383 
1.522789241291967 
-0.284287136731634 
-0.4290638759123159 
1.507003271145321 
-1.403410954344144 
0.7404531023855488 
-0.03743760219042536 
1.044126070782055 
2.192301030438834 
0.04635481744472777 
0.5656695949469491 
0.6430618206338583 
0.1810518705581942 
-0.8683665700803962 
2.078860004512614 
0.6264418214904448 
1.529468561799225 
1.316539281809703 
0.5560259388942448 
-1.456597932081194 
0.6351607495107762 
0.9001099038488095 
-0.7180257361469928 
0.7847649945585128 
1.557406145670736 
-0.1505447962269858 
-0.1732397347084208 
1.353012922887658 
2.04500320012534 
1.116039453244289 
1.644540650853474 
-0.3886586315393644 
-0.1446527816704337 
0.300476299985999 
-0.008165087149634216 
2.128298536862 
1.029800809135092 
1.883431032517471 
-0.7236248655933906 
0.4652945263629917 
-0.3430587545147344 
0.3533272205228636 
-0.7572482487896206 
-0.1112548241143515 
0.4585360961344087 
-0.1175677414606929 
0.1154983020392351 
0.8590961313948933 
0.002322273631611416 
1.016513705255455 
-0.8872692840397229 
-0.6359828746538609 
0.8280868039209023 
0.7731259460078832 
1.710434205256086 
1.277711081557074 
0.6051171814279753 
0.4195043234238884 
-0.9812298766969892 
0.4049264334577364 
-0.9099588462503049 
-0.4555287837652274 
-0.4401769393483833 
0.5436181821282332 
1.51831283496762 
-0.1884090764265185 
1.791852921997972 
0.1234590648952423 
0.4213072957259611 
-0.7892618004252059 
-0.5265817256950132 
0.1002423359129992 
-0.0531017890147891 
0.4222937040048888 
0.4355906183711447 
-0.2068877312251008 
3.159084195309844 
-1.392310199208793 
0.2359884818620551 
0.003398036102672853 
0.7657010756282143 
0.3294276171525213 
-1.278399107066394 
0.9270735657748083 
-0.01531250182465256 
1.646098977909987 
2.508763640286338 
0.6610040552498632 
0.5081207215102914 
1.842767211823318 
-0.1440685591449331 
-0.1585049823810649 
0.4421981697419305 
0.8996160117435201 
-0.5477596675566309 
1.634823549983145 
-0.2882743960115205 
0.3120751505166266 
0.2388083523367681 
-0.08858192169847653 
2.209649715152643 
-0.2259417057164199 
0.7355806559504867 
2.017366438016045 
0.2525485756417217 
1.187996904525924 
-1.368182868819962 
0.6981362369993267 
0.2844006528007807 
0.2943617886798405 
0.6757282344784783 
2.822683781671111 
-0.5938622213687479 
0.08860214864016867 
1.227314576852627 
-0.9449521251026065 
-0.5954748254770059 
1.3065116803408 
0.6023104403165948 
-0.1809618220372267 
-0.4117627121796601 
0.3949960075086756 
1.136194835433098 
0.2361548207315777 
-1.08055406166026 
-2.971425225035617 
1.648971043691443 
0.9474437067713244 
1.32224566634317 
-0.05654445144446599 
0.4823362152992374 
0.01450248701592992 
1.264825173411257 
0.07904114713722943 
-1.141538393789008 
1.40462716769533 
-0.1462060384556969 
1.122103975678422 
0.9742572055749761 
0.7057816944458003 
0.2106229701863646 
-0.376458208470229 
1.992622092668177 
-0.4377649880922053 
-2.728060612500697 
0.4186090819584795 
0.239201201875428 
0.2036273350682133 
-0.06158583833388749 
0.8537104668995703 
1.566217045076118 
0.9930809874707066 
2.635286708124858 
-0.2266029467245745 
1.367967227931058 
0.3421656680679848 
1.642864024185474 
1.888892375051587 
-0.9358053502519841 
1.254435216323723 
1.929474862221354 
-1.415230122082455 
0.7465465948989364 
0.8013224724035116 
0.5673004851567023 
-0.2478724805169109 
0.7670471145607524 
1.565341811005348 
0.4076703059211663 
0.1092954997950769 
-0.07603501781344547 
-0.7882281610569037 
1.274022303244384 
-0.02648860654163967 
1.656469558717227 
0.09343035870129111 
0.2054440949383364 
-0.7827460346343146 
0.01058983712851283 
-0.09076225793916305 
1.165560969603193 
0.6350121745903654 
-0.5161936256825401 
-0.282824408382896 
0.6583758560548192 
1.000635716476292 
-0.4515158162651241 
-0.2487181072278935 
1.223459756003528 
-0.4228082745742495 
1.65628135295799 
-0.09842249692298601 
1.812692208166129 
-0.5293978181464782 
0.8078709330001962 
0.1385493868285325 
0.4716591781512333 
-0.7515571104988591 
0.6049938896979847 
0.03276834307933218 
0.1268489309858716 
0.1187178876626497 
2.088199616568651 
0.1969746706400609 
2.726106968910913 
0.6065819634344909 
-3.213310748546501 
-0.7699583735232048 
1.375174847177564 
1.31656286551124 
-3.351049550792975 
0.6551365341554305 
1.152397189718752 
-0.1076221589589501 
0.2215403980439929 
0.5194962464895989 
0.582567431985072 
0.6526779072468403 
0.3892892768579466 
-0.4180670154685094 
-0.9378906550287752 
0.0583675852685161 
3.227950179668014 
1.148581832118412 
-0.3617749165915017 
1.914826275486721 
-1.212120594543576 
0.5238217882684919 
2.245389773933823 
1.20799517880544 
0.1966619802141811 
0.4214814503711492 
-0.764479681937454 
0.3624407700661603 
3.083771090067555 
1.508097061691873 
0.2635806885629965 
0.08555189389753928 
1.670679938286894 
-0.04668458949120688 
-0.1087557795764248 
1.340497144435696 
0.4042823552918974 
-0.05800549949712069 
0.3927351530109898 
0.824756124840196 
1.020044345554687 
-0.3261871688408184 
0.4626650184630676 
-0.2131377305493463 
0.3002820744593421 
0.9000939754825439 
0.8849761165550023 
-0.1337864258342164 
0.2757529431987126 
-0.06612416052485842 
0.124172507352438 
0.8760514629095034 
1.244033475134414 
0.8486869079826228 
2.636322796895168 
1.380955388213114 
0.3991430784191273 
1.12266016882745 
1.940991722872476 
1.016616786421927 
0.1250012298677539 
1.018366347396796 
1.299602221601202 
-0.7719178763164527 
0.6855191665085847 
1.551306567801152 
0.5320253449688811 
0.5622668736056619 
0.1196670455390671 
0.4262711999865965 
-2.549783254020874 
0.6616884332631161 
-0.3345231784511795 
-1.059394339315794 
-0.4507792655377237 
1.15509099203773 
-0.01643200932932672 
0.923555264613511 
-0.0768839134896572 
-0.138695715570834 
-0.04767579977006242 
0.1256966424183306 
-0.04569615841501166 
-0.6828170891338214 
1.702799068190774 
-2.08626116555308 
0.7061970806623106 
-0.6916191785436768 
0.05675661945435739 
-0.1118855403904147 
0.2448291952213516 
1.06435253911993 
-1.190322238819886 
0.3464308244678751 
2.407315492474018 
0.145346242672151 
1.307162491629848 
0.7236128618856296 
0.3094662869301066 
0.1031111984046878 
0.1617213411270064 
0.5472620215747752 
0.01448821393000161 
1.72227793114576 
1.760340240506088 
-1.221018719830776 
0.3878472904171927 
0.6613618382161675 
1.495382447171666 
-0.6730163134206059 
-1.551952350191862 
1.241763635542504 
-0.2163811833470029 
-0.671663140456123 
1.095518212735594 
-0.483676611956834 
0.118393873845633 
0.7802817565393431 
0.4094007204275079 
0.225775226916948 
1.968515661485933 
0.7377858808144561 
1.03431508664737 
0.7970681069155857 
-0.4887326983209728 
-0.04990309506823759 
-0.2101683235088326 
-0.8460609131869262 
0.5568685376541186 
-0.7064263085674586 
0.1196961666084487 
0.5494151999457308 
-0.5023500507416629 
0.2621759031254236 
3.553413411317306 
-0.02783563967438181 
0.0650492831403581 
0.5156804206864741 
1.237580708197993 
0.1336357553907753 
-0.696415044918246 
0.02289561141253017 
-0.7638889957389118 
0.7332028277341066 
0.3979463365608002 
1.384175020508401 
-0.9207483546581509 
0.1017599243495763 
0.01335966491620053 
0.2086467390473465 
1.468870208530911 
0.8903829685759976 
1.143164814965752 
1.202346735340653 
3.825733666131807 
1.370301391024679 
-1.165254892327232 
1.659270713350022 
0.2915352541588471 
1.860937571872261 
0.8042765361714934 
1.285994738371081 
0.9834666508214014 
-0.4182049685510013 
2.544611076182647 
1.15231584547391 
1.461532273821521 
-1.613581543263027 
-0.4065814779521777 
-0.3395117282755837 
-0.186785421293293 
-0.04429807575980618 
0.1213597672659699 
0.3936335723975181 
-1.003883958272391 
-0.1968429511355426 
0.6043403494712376 
-1.1982610353203 
-0.393252075404901 
0.2128120900581069 
-0.3066537843309793 
2.064434813525369 
-0.130964961796848 
0.01764611195513589 
0.135850678432792 
0.8136677275356164 
0.2357796536028927 
0.3981259129444962 
0.003703938982910909 
1.331452641014681 
0.5523052605869462 
0.0791259621295351 
-0.09115161115616789 
0.0453418917876771 
0.2799017354524393 
-0.1234751689678201 
-0.2790874464662604 
-0.4297331861134107 
0.1275232671587052 
1.243237266887685 
-0.9636524891010566 
-0.7424851530404575 
-0.3050854754924667 
-0.1208525031911738 
1.926571955503069 
-0.0691379242479962 
-0.03778297825071852 
-0.7485697058976649 
-3.013027682563874 
0.2121203549269945 
0.5132127020499662 
1.52960104085042 
-0.7005254261381968 
-0.9750401892378364 
-3.097090050265311 
0.4964463841857905 
-0.3963279059674814 
1.02212983658418 
-0.4870477664222502 
0.4050169485539252 
0.6944701380032681 
-0.6430258454576414 
0.5509299744354882 
0.3000948663917951 
-2.673319791478047 
0.2512885880692842 
0.2248196602166533 
0.5440741502325729 
0.9216232050332011 
-0.07847932982279196 
-0.06743026540595198 
-0.3003973006668043 
0.209668909174541 
-0.07151083607505164 
2.942176585202895 
0.183901312290672 
0.06472900672368113 
1.408954600513834 
0.4838171377665277 
0.440314353055072 
0.9723203807718882 
0.8660744488502949 
3.451278907136062 
0.7135401091875548 
1.231894625580757 
3.384292471112337 
-0.5556895900982245 
0.4018847972827383 
2.541003870355515 
0.8555777901021955 
0.5322610355081578 
0.5544660814839383 
1.450206639277387 
-0.06002778709402452 
0.5878182377351696 
1.541536207673341 
-0.1828893323625091 
1.608689453490254 
0.7498798331396914 
3.006823098056714 
2.349959241013813 
0.3264707873502926 
0.250362269393556 
-0.9257570479755594 
0.1127157033868434 
0.04226108638945349 
0.6799522121203797 
0.6501790477002938 
-0.5554015381643647 
0.3440757063094126 
0.970536410664521 
0.3374018967187626 
1.04612071847114 
0.5676888317975579 
0.5280797638855319 
1.009271998059778 
0.3043108427259656 
1.133386641226705 
1.549222427434163 
0.3104330142334311 
0.9428372493524364 
-1.188253999039556 
0.3801921077245374 
-0.182692117678403 
1.022073053535774 
0.2124918470365314 
0.7273106821511901 
-0.6333889960383525 
0.9793123378731791 
1.210310726044793 
-0.4244713068870599 
-1.623319627405947 
1.573199432969681 
0.06117913938740294 
-0.2913165587866672 
-0.3941441597895808 
-0.1411786071516626 
1.048676633936794 
0.797791267954681 
-0.1221148061397961 
0.1804652862746189 
0.6753625677431774 
0.07739852286488198 
0.6895179542128742 
0.2270330435359253 
1.819580577848542 
1.116534246734732 
1.204816236498789 
1.165897914663176 
0.3548756112958271 
1.319294505632676 
1.254116192301424 
1.321409731758417 
1.926973537214232 
3.096596481078245 
-0.3562823830491462 
0.3004860772542896 
-0.2929711743024795 
-0.5016006206410429 
1.094118298934887 
0.1074230439884433 
1.347024069071301 
-0.01974407292171801 
0.6930638468393627 
2.381360856437803 
-0.3622029349099788 
0.4768120421749236 
0.02189830443604786 
0.4188620871269857 
1.104788526756582 
0.4069909436090416 
0.7509465395892471 
0.8666750323073099 
1.026209921425504 
1.10195626050252 
0.2662472629922042 
0.7190160928386298 
0.8578265969499281 
0.5540958236855106 
0.310509196339403 
1.062318094261817 
0.7942384072009737 
-0.3022515760632618 
0.2783082810796232 
0.9035073685073586 
-0.1686178503889783 
0.9782505692734849 
0.9304791698065997 
0.1843055458889627 
0.1879493992972959 
0.009083419826868916 
2.117564459388271 
-0.1662322877687297 
-0.08723502534562524 
-0.1370262873757276 
-0.03680397630802629 
-0.6468300277044353 
-0.02327846915089306 
-0.04438074347932992 
1.200162655153681 
0.1990607200447412 
-0.302048004006802 
0.1095573070102324 
-0.763558505583254 
-0.1421451487342837 
0.6212761502548158 
-1.405154575002632 
-0.4655938374077681 
1.016837676604599 
-0.2818705476865163 
-0.3310367905965683 
0.5880590828648881 
-0.2234221424733852 
0.8493990826173814 
0.6690682701724127 
-0.04354429721344746 
-0.9187968365275744 
0.2395701149613464 
-0.4693801190202623 
0.6681135501992047 
0.9132827561324547 
1.533045175001454 
0.373393315707394 
0.6294910656490277 
0.48239075745971 
1.182512321786335 
0.5040548759081074 
-0.1711795135751363 
0.04644671869091547 
-0.6355347934382041 
0.377714806690163 
-0.3170925576620992 
1.229690511937934 
0.21430328840289 
0.6972761654134219 
-0.1573481464604344 
-0.03062849342482535 
0.6436426430736614 
-0.4547609211039098 
0.3573760112054215 
1.967560729894819 
0.230353886963389 
0.1481302325611835 
0.0975214242084308 
0.5606829805545641 
0.402525883912205 
1.454082088394176 
-3.162847518750414 
0.7393845261982201 
-0.4162654904069529 
-0.3071533732423787 
1.84603108284007 
0.02345853444715751 
-0.8181692615808224 
1.355228887654273 
0.5208580943285378 
-0.130107372896155 
0.1382348815107469 
-0.05886509042723208 
0.3167332712877655 
2.64244974276704 
0.4237318765333041 
-0.6124748826930162 
0.377584559588375 
-0.3113753887487918 
0.8361781994216844 
1.126270538150985 
0.2743146206986675 
1.342296486361829 
1.342296486361829 
-0.462472209719737 
0.2384517810346739 
1.342603516788609 
1.082289180692314 
-0.1080030236435979 
0.08207232643381254 
0.1529343468936447 
-0.2186346135553781 
2.575811088018996 
1.032808448849281 
1.246549590736781 
0.2190053791451474 
0.134818777508203 
2.645171961906183 
-0.03666882679149586 
-0.6730025062075131 
0.6981386829053904 
0.4195700471200408 
1.802216003464296 
-0.0478427937758933 
1.100966403341968 
-0.4298769957563917 
0.713058702761235 
0.07226833114568576 
1.022902249866068 
-0.561325223309072 
0.3258783990838011 
1.855687060347798 
0.2805681674498329 
1.172781369932781 
0.5954709831578213 
1.461144586197663 
0.7154404418953075 
0.605282476970284 
-0.1163109476620504 
0.9662872149201057 
0.793787063090204 
-0.3663706014395274 
0.335514864970896 
-0.2571673953694109 
0.3884982901926034 
1.081542745863185 
-0.1175033833127743 
-1.126421623772126 
0.5512880004132439 
0.3118276612435375 
-1.235903374952044 
1.658712534140387 
-0.4471867071991941 
1.139755121622059 
-0.08922476352250243 
-0.1473822557851528 
-0.2194932471694524 
1.285403940558097 
0.1186172633818841 
-0.2329518074073107 
-0.2187768085432866 
1.444625797672621 
0.3092540134381866 
-0.03738517250757489 
-0.07428713522281154 
0.03443360187390088 
1.317974823616258 
1.609549860178614 
-0.3817022507165639 
1.422092897740413 
0.05155571490826941 
-0.5602132251844828 
-0.3661325181240803 
1.283844369828352 
0.05616996703038446 
0.9078069991643393 
2.13772165905024 
-0.2946582896292454 
0.3243341440047468 
-0.06017557523792217 
0.286644075015696 
1.070308349295927 
0.7270454597879411 
1.251347247206789 
1.251347247206789 
1.251347247206789 
0.4115793893423973 
1.057226540111915 
-0.1400541290443389 
1.251347247206789 
0.3732577459991334 
2.537875356763685 
-0.08185637984851452 
-0.02213895361830538 
1.098565778690547 
0.9820711670862714 
-1.223702543268201e-06 
-0.3589904101320261 
-0.1814078724384132 
0.8598680987355252 
0.8860058824570942 
0.6196476835728826 
1.542405933288785 
3.162636680730265 
-1.116417921905618 
0.1180019433248216 
2.062853286718799 
1.074362321574785 
1.775805401696113 
0.5195068453140319 
2.054661749011766 
0.6862470093382325 
0.7205354530065454 
0.6818638303523308 
-0.2068925733943023 
0.1025036476653389 
0.6308391267867615 
1.757191677020759 
1.014560076205333 
0.7542315202191939 
-0.2807890355621671 
0.3931379463409937 
0.1661996473458945 
0.2738181354253246 
-0.6135713813365936 
0.6242254143053372 
1.507830928015971 
0.0314530285800227 
-0.03469606079760366 
0.4867481428099028 
0.7952676709742812 
-0.05177655386234958 
0.2287468603999868 
0.04033385489684458 
-0.06189942174387969 
0.9389728703446593 
0.2516834614638923 
1.361186232361533 
-0.09805584707205055 
1.297103988685866 
-0.01945681924677847 
0.5038392370591924 
1.440586747238532 
1.293096794840414 
0.4691496652422528 
0.4187909109491684 
0.6342394193106267 
1.007916021055581 
-0.196569045174257 
-0.05319081121387907 
-1.026520077285538 
0.6716668835616365 
0.04313908608338859 
0.4932943949311672 
0.7931272625382166 
0.7074840381878408 
-0.04169269338701859 
-0.20603924592463 
0.7890026195925997 
0.2869442928458956 
0.01477651590624807 
-0.7547194102528968 
1.208926285339897 
-0.2508013782893963 
-0.01146893502520958 
2.220710558457012 
1.087872717730809 
-0.3059127813655109 
0.05057386406790187 
-0.5621963738184377 
1.128987114881134 
-0.2786892311769216 
0.5070901228573338 
-0.2996129456764066 
1.563643777125131 
0.2131306215945127 
1.146422333191628 
0.8335054262776076 
0.01660750714404713 
1.156481526448417 
0.5428091741764439 
-0.3720289171915546 
0.2852351135734038 
-0.3528262784308228 
0.01790578340420934 
0.09933746340923344 
1.216360891937615 
0.4071506338707702 
0.4924892435926236 
0.4816594397305401 
0.2419856464980681 
0.2177612148779553 
0.1250182329074134 
-0.7591385382286973 
0.4599191337882472 
0.7106241182155197 
-0.4101851980128247 
0.6306319904449994 
0.9156250860073781 
-0.3853835923785626 
1.21478149121054 
0.8465681844649784 
1.173764774367525 
-3.672735881216448 
1.013314532677448 
2.480385158947366 
0.1799561985369564 
0.5708505360926338 
1.245131386043719 
1.826150429934684 
0.1235829268297136 
3.054086641261914 
0.4210642989659988 
0.5269289416621694 
1.057348327173595 
0.2122756284471568 
0.9799582104597023 
0.9789112622160955 
1.118244102525269 
-2.270645987109335 
0.02660514146676053 
0.9455403141727363 
-0.7030076989421021 
1.999524027754557 
-0.2962388548340494 
-3.564855300165345 
0.5494434946028803 
